{"learner":{"attributes":{},"feature_names":[],"feature_types":[],"gradient_booster":{"model":{"gbtree_model_param":{"num_parallel_tree":"1","num_trees":"1500"},"iteration_indptr":[0,2,4,6,8,10,12,14,16,18,20,22,24,26,28,30,32,34,36,38,40,42,44,46,48,50,52,54,56,58,60,62,64,66,68,70,72,74,76,78,80,82,84,86,88,90,92,94,96,98,100,102,104,106,108,110,112,114,116,118,120,122,124,126,128,130,132,134,136,138,140,142,144,146,148,150,152,154,156,158,160,162,164,166,168,170,172,174,176,178,180,182,184,186,188,190,192,194,196,198,200,202,204,206,208,210,212,214,216,218,220,222,224,226,228,230,232,234,236,238,240,242,244,246,248,250,252,254,256,258,260,262,264,266,268,270,272,274,276,278,280,282,284,286,288,290,292,294,296,298,300,302,304,306,308,310,312,314,316,318,320,322,324,326,328,330,332,334,336,338,340,342,344,346,348,350,352,354,356,358,360,362,364,366,368,370,372,374,376,378,380,382,384,386,388,390,392,394,396,398,400,402,404,406,408,410,412,414,416,418,420,422,424,426,428,430,432,434,436,438,440,442,444,446,448,450,452,454,456,458,460,462,464,466,468,470,472,474,476,478,480,482,484,486,488,490,492,494,496,498,500,502,504,506,508,510,512,514,516,518,520,522,524,526,528,530,532,534,536,538,540,542,544,546,548,550,552,554,556,558,560,562,564,566,568,570,572,574,576,578,580,582,584,586,588,590,592,594,596,598,600,602,604,606,608,610,612,614,616,618,620,622,624,626,628,630,632,634,636,638,640,642,644,646,648,650,652,654,656,658,660,662,664,666,668,670,672,674,676,678,680,682,684,686,688,690,692,694,696,698,700,702,704,706,708,710,712,714,716,718,720,722,724,726,728,730,732,734,736,738,740,742,744,746,748,750,752,754,756,758,760,762,764,766,768,770,772,774,776,778,780,782,784,786,788,790,792,794,796,798,800,802,804,806,808,810,812,814,816,818,820,822,824,826,828,830,832,834,836,838,840,842,844,846,848,850,852,854,856,858,860,862,864,866,868,870,872,874,876,878,880,882,884,886,888,890,892,894,896,898,900,902,904,906,908,910,912,914,916,918,920,922,924,926,928,930,932,934,936,938,940,942,944,946,948,950,952,954,956,958,960,962,964,966,968,970,972,974,976,978,980,982,984,986,988,990,992,994,996,998,1000,1002,1004,1006,1008,1010,1012,1014,1016,1018,1020,1022,1024,1026,1028,1030,1032,1034,1036,1038,1040,1042,1044,1046,1048,1050,1052,1054,1056,1058,1060,1062,1064,1066,1068,1070,1072,1074,1076,1078,1080,1082,1084,1086,1088,1090,1092,1094,1096,1098,1100,1102,1104,1106,1108,1110,1112,1114,1116,1118,1120,1122,1124,1126,1128,1130,1132,1134,1136,1138,1140,1142,1144,1146,1148,1150,1152,1154,1156,1158,1160,1162,1164,1166,1168,1170,1172,1174,1176,1178,1180,1182,1184,1186,1188,1190,1192,1194,1196,1198,1200,1202,1204,1206,1208,1210,1212,1214,1216,1218,1220,1222,1224,1226,1228,1230,1232,1234,1236,1238,1240,1242,1244,1246,1248,1250,1252,1254,1256,1258,1260,1262,1264,1266,1268,1270,1272,1274,1276,1278,1280,1282,1284,1286,1288,1290,1292,1294,1296,1298,1300,1302,1304,1306,1308,1310,1312,1314,1316,1318,1320,1322,1324,1326,1328,1330,1332,1334,1336,1338,1340,1342,1344,1346,1348,1350,1352,1354,1356,1358,1360,1362,1364,1366,1368,1370,1372,1374,1376,1378,1380,1382,1384,1386,1388,1390,1392,1394,1396,1398,1400,1402,1404,1406,1408,1410,1412,1414,1416,1418,1420,1422,1424,1426,1428,1430,1432,1434,1436,1438,1440,1442,1444,1446,1448,1450,1452,1454,1456,1458,1460,1462,1464,1466,1468,1470,1472,1474,1476,1478,1480,1482,1484,1486,1488,1490,1492,1494,1496,1498,1500],"tree_info":[0,1,0,1,0,1,0,1,0,1,0,1,0,1,0,1,0,1,0,1,0,1,0,1,0,1,0,1,0,1,0,1,0,1,0,1,0,1,0,1,0,1,0,1,0,1,0,1,0,1,0,1,0,1,0,1,0,1,0,1,0,1,0,1,0,1,0,1,0,1,0,1,0,1,0,1,0,1,0,1,0,1,0,1,0,1,0,1,0,1,0,1,0,1,0,1,0,1,0,1,0,1,0,1,0,1,0,1,0,1,0,1,0,1,0,1,0,1,0,1,0,1,0,1,0,1,0,1,0,1,0,1,0,1,0,1,0,1,0,1,0,1,0,1,0,1,0,1,0,1,0,1,0,1,0,1,0,1,0,1,0,1,0,1,0,1,0,1,0,1,0,1,0,1,0,1,0,1,0,1,0,1,0,1,0,1,0,1,0,1,0,1,0,1,0,1,0,1,0,1,0,1,0,1,0,1,0,1,0,1,0,1,0,1,0,1,0,1,0,1,0,1,0,1,0,1,0,1,0,1,0,1,0,1,0,1,0,1,0,1,0,1,0,1,0,1,0,1,0,1,0,1,0,1,0,1,0,1,0,1,0,1,0,1,0,1,0,1,0,1,0,1,0,1,0,1,0,1,0,1,0,1,0,1,0,1,0,1,0,1,0,1,0,1,0,1,0,1,0,1,0,1,0,1,0,1,0,1,0,1,0,1,0,1,0,1,0,1,0,1,0,1,0,1,0,1,0,1,0,1,0,1,0,1,0,1,0,1,0,1,0,1,0,1,0,1,0,1,0,1,0,1,0,1,0,1,0,1,0,1,0,1,0,1,0,1,0,1,0,1,0,1,0,1,0,1,0,1,0,1,0,1,0,1,0,1,0,1,0,1,0,1,0,1,0,1,0,1,0,1,0,1,0,1,0,1,0,1,0,1,0,1,0,1,0,1,0,1,0,1,0,1,0,1,0,1,0,1,0,1,0,1,0,1,0,1,0,1,0,1,0,1,0,1,0,1,0,1,0,1,0,1,0,1,0,1,0,1,0,1,0,1,0,1,0,1,0,1,0,1,0,1,0,1,0,1,0,1,0,1,0,1,0,1,0,1,0,1,0,1,0,1,0,1,0,1,0,1,0,1,0,1,0,1,0,1,0,1,0,1,0,1,0,1,0,1,0,1,0,1,0,1,0,1,0,1,0,1,0,1,0,1,0,1,0,1,0,1,0,1,0,1,0,1,0,1,0,1,0,1,0,1,0,1,0,1,0,1,0,1,0,1,0,1,0,1,0,1,0,1,0,1,0,1,0,1,0,1,0,1,0,1,0,1,0,1,0,1,0,1,0,1,0,1,0,1,0,1,0,1,0,1,0,1,0,1,0,1,0,1,0,1,0,1,0,1,0,1,0,1,0,1,0,1,0,1,0,1,0,1,0,1,0,1,0,1,0,1,0,1,0,1,0,1,0,1,0,1,0,1,0,1,0,1,0,1,0,1,0,1,0,1,0,1,0,1,0,1,0,1,0,1,0,1,0,1,0,1,0,1,0,1,0,1,0,1,0,1,0,1,0,1,0,1,0,1,0,1,0,1,0,1,0,1,0,1,0,1,0,1,0,1,0,1,0,1,0,1,0,1,0,1,0,1,0,1,0,1,0,1,0,1,0,1,0,1,0,1,0,1,0,1,0,1,0,1,0,1,0,1,0,1,0,1,0,1,0,1,0,1,0,1,0,1,0,1,0,1,0,1,0,1,0,1,0,1,0,1,0,1,0,1,0,1,0,1,0,1,0,1,0,1,0,1,0,1,0,1,0,1,0,1,0,1,0,1,0,1,0,1,0,1,0,1,0,1,0,1,0,1,0,1,0,1,0,1,0,1,0,1,0,1,0,1,0,1,0,1,0,1,0,1,0,1,0,1,0,1,0,1,0,1,0,1,0,1,0,1,0,1,0,1,0,1,0,1,0,1,0,1,0,1,0,1,0,1,0,1,0,1,0,1,0,1,0,1,0,1,0,1,0,1,0,1,0,1,0,1,0,1,0,1,0,1,0,1,0,1,0,1,0,1,0,1,0,1,0,1,0,1,0,1,0,1,0,1,0,1,0,1,0,1,0,1,0,1,0,1,0,1,0,1,0,1,0,1,0,1,0,1,0,1,0,1,0,1,0,1,0,1,0,1,0,1,0,1,0,1,0,1,0,1,0,1,0,1,0,1,0,1,0,1,0,1,0,1,0,1,0,1,0,1,0,1,0,1,0,1,0,1,0,1,0,1,0,1,0,1,0,1,0,1,0,1,0,1,0,1,0,1,0,1,0,1,0,1,0,1,0,1,0,1,0,1,0,1,0,1,0,1,0,1,0,1,0,1,0,1,0,1,0,1,0,1,0,1,0,1,0,1,0,1,0,1,0,1,0,1,0,1,0,1,0,1,0,1,0,1,0,1,0,1,0,1,0,1,0,1,0,1,0,1,0,1,0,1,0,1,0,1,0,1,0,1,0,1,0,1,0,1,0,1,0,1,0,1,0,1,0,1,0,1,0,1,0,1,0,1,0,1,0,1,0,1,0,1,0,1,0,1,0,1,0,1,0,1,0,1,0,1,0,1,0,1,0,1,0,1,0,1,0,1,0,1,0,1,0,1,0,1,0,1,0,1,0,1,0,1,0,1,0,1,0,1,0,1,0,1,0,1,0,1,0,1,0,1,0,1,0,1,0,1,0,1,0,1,0,1,0,1,0,1,0,1,0,1,0,1,0,1,0,1,0,1,0,1,0,1,0,1,0,1,0,1,0,1,0,1,0,1,0,1,0,1,0,1,0,1,0,1,0,1,0,1,0,1,0,1,0,1,0,1,0,1,0,1,0,1,0,1,0,1,0,1,0,1,0,1,0,1,0,1,0,1,0,1,0,1,0,1,0,1,0,1,0,1,0,1,0,1,0,1,0,1,0,1,0,1,0,1,0,1,0,1,0,1,0,1,0,1,0,1,0,1,0,1,0,1,0,1,0,1,0,1,0,1,0,1,0,1,0,1,0,1,0,1,0,1,0,1,0,1,0,1,0,1,0,1,0,1,0,1,0,1,0,1,0,1,0,1,0,1,0,1,0,1,0,1,0,1,0,1,0,1,0,1,0,1,0,1,0,1,0,1,0,1,0,1,0,1,0,1,0,1,0,1,0,1,0,1,0,1,0,1,0,1,0,1,0,1,0,1,0,1,0,1,0,1,0,1,0,1,0,1,0,1,0,1,0,1,0,1,0,1,0,1,0,1,0,1,0,1,0,1,0,1,0,1,0,1,0,1,0,1,0,1,0,1,0,1,0,1,0,1,0,1,0,1,0,1,0,1,0,1,0,1,0,1,0,1,0,1,0,1,0,1,0,1,0,1],"trees":[{"base_weights":[-1.532946E-1,1.1774259E-1,-3.1363362E-1,-1.4405595E-1,2.2469983E-1,-1.3477218E-1,-4.9290353E-1,8.976378E-4,-3.2998745E-3,1.1335012E-3,3.7029705E-3,-2.7955354E-3,-4.9977283E-5,-3.9903456E-3,-6.3179913E-3],"categories":[],"categories_nodes":[],"categories_segments":[],"categories_sizes":[],"default_left":[0,0,0,0,0,0,0,0,0,0,0,0,0,0,0],"id":0,"left_children":[1,3,5,7,9,11,13,-1,-1,-1,-1,-1,-1,-1,-1],"loss_changes":[2.879234E2,6.8999435E1,1.3340195E2,3.1113857E1,2.8313179E1,3.9173504E1,2.6847351E1,0E0,0E0,0E0,0E0,0E0,0E0,0E0,0E0],"parents":[2147483647,0,0,1,1,2,2,3,3,4,4,5,5,6,6],"right_children":[2,4,6,8,10,12,14,-1,-1,-1,-1,-1,-1,-1,-1],"split_conditions":[4.59E-1,-2.4E0,1.3E1,-4.9E0,2.6E1,9E0,2.3E1,8.976378E-4,-3.2998745E-3,1.1335012E-3,3.7029705E-3,-2.7955354E-3,-4.9977283E-5,-3.9903456E-3,-6.3179913E-3],"split_indices":[3,77,80,25,51,51,80,0,0,0,0,0,0,0,0],"split_type":[0,0,0,0,0,0,0,0,0,0,0,0,0,0,0],"sum_hessian":[6.6235E3,2.462E3,4.1615E3,7.14E2,1.748E3,2.084E3,2.0775E3,3.165E2,3.975E2,9.915E2,7.565E2,9.845E2,1.0995E3,1.242E3,8.355E2],"tree_param":{"num_deleted":"0","num_feature":"106","num_nodes":"15","size_leaf_vector":"1"}},{"base_weights":[1.532946E-1,-1.1774259E-1,3.1363362E-1,1.4405595E-1,-2.2469983E-1,1.3477218E-1,4.9290353E-1,-8.976378E-4,3.2998745E-3,-1.1335012E-3,-3.7029705E-3,2.7955354E-3,4.9977283E-5,3.9903456E-3,6.3179913E-3],"categories":[],"categories_nodes":[],"categories_segments":[],"categories_sizes":[],"default_left":[0,0,0,0,0,0,0,0,0,0,0,0,0,0,0],"id":1,"left_children":[1,3,5,7,9,11,13,-1,-1,-1,-1,-1,-1,-1,-1],"loss_changes":[2.879234E2,6.8999435E1,1.3340195E2,3.1113857E1,2.8313179E1,3.9173504E1,2.6847351E1,0E0,0E0,0E0,0E0,0E0,0E0,0E0,0E0],"parents":[2147483647,0,0,1,1,2,2,3,3,4,4,5,5,6,6],"right_children":[2,4,6,8,10,12,14,-1,-1,-1,-1,-1,-1,-1,-1],"split_conditions":[4.59E-1,-2.4E0,1.3E1,-4.9E0,2.6E1,9E0,2.3E1,-8.976378E-4,3.2998745E-3,-1.1335012E-3,-3.7029705E-3,2.7955354E-3,4.9977283E-5,3.9903456E-3,6.3179913E-3],"split_indices":[3,77,80,25,51,51,80,0,0,0,0,0,0,0,0],"split_type":[0,0,0,0,0,0,0,0,0,0,0,0,0,0,0],"sum_hessian":[6.6235E3,2.462E3,4.1615E3,7.14E2,1.748E3,2.084E3,2.0775E3,3.165E2,3.975E2,9.915E2,7.565E2,9.845E2,1.0995E3,1.242E3,8.355E2],"tree_param":{"num_deleted":"0","num_feature":"106","num_nodes":"15","size_leaf_vector":"1"}},{"base_weights":[-1.5176505E-1,1.165669E-1,-3.10505E-1,-4.2096626E-2,2.9109204E-1,-1.3342631E-1,-4.8799196E-1,1.674089E-3,-2.1484972E-3,4.454227E-3,2.044205E-3,-2.7676292E-3,-4.9478247E-5,-3.9505367E-3,-6.2551377E-3],"categories":[],"categories_nodes":[],"categories_segments":[],"categories_sizes":[],"default_left":[0,0,0,0,0,0,0,0,0,0,0,0,0,0,0],"id":2,"left_children":[1,3,5,7,9,11,13,-1,-1,-1,-1,-1,-1,-1,-1],"loss_changes":[2.822035E2,6.821419E1,1.3075687E2,4.6760468E1,1.55989685E1,3.8395172E1,2.6317596E1,0E0,0E0,0E0,0E0,0E0,0E0,0E0,0E0],"parents":[2147483647,0,0,1,1,2,2,3,3,4,4,5,5,6,6],"right_children":[2,4,6,8,10,12,14,-1,-1,-1,-1,-1,-1,-1,-1],"split_conditions":[4.59E-1,5.14E-1,1.3E1,-4.9E0,-5.9E0,9E0,2.3E1,1.674089E-3,-2.1484972E-3,4.454227E-3,2.044205E-3,-2.7676292E-3,-4.9478247E-5,-3.9505367E-3,-6.2551377E-3],"split_indices":[3,55,80,25,25,51,80,0,0,0,0,0,0,0,0],"split_type":[0,0,0,0,0,0,0,0,0,0,0,0,0,0,0],"sum_hessian":[6.623423E3,2.4619836E3,4.1614395E3,1.2899915E3,1.1719923E3,2.0839924E3,2.077447E3,5.829963E2,7.069951E2,4.199946E2,7.5199774E2,9.844923E2,1.0995E3,1.2419803E3,8.354666E2],"tree_param":{"num_deleted":"0","num_feature":"106","num_nodes":"15","size_leaf_vector":"1"}},{"base_weights":[1.5176506E-1,-1.1656692E-1,3.1050503E-1,4.2096633E-2,-2.910921E-1,1.3342637E-1,4.87992E-1,-1.6740888E-3,2.1484972E-3,-4.454227E-3,-2.044206E-3,2.7676304E-3,4.9478247E-5,3.950538E-3,6.255137E-3],"categories":[],"categories_nodes":[],"categories_segments":[],"categories_sizes":[],"default_left":[0,0,0,0,0,0,0,0,0,0,0,0,0,0,0],"id":3,"left_children":[1,3,5,7,9,11,13,-1,-1,-1,-1,-1,-1,-1,-1],"loss_changes":[2.8220358E2,6.821421E1,1.307568E2,4.676047E1,1.55989685E1,3.83952E1,2.6317535E1,0E0,0E0,0E0,0E0,0E0,0E0,0E0,0E0],"parents":[2147483647,0,0,1,1,2,2,3,3,4,4,5,5,6,6],"right_children":[2,4,6,8,10,12,14,-1,-1,-1,-1,-1,-1,-1,-1],"split_conditions":[4.59E-1,5.14E-1,1.3E1,-4.9E0,-5.9E0,9E0,2.3E1,-1.6740888E-3,2.1484972E-3,-4.454227E-3,-2.044206E-3,2.7676304E-3,4.9478247E-5,3.950538E-3,6.255137E-3],"split_indices":[3,55,80,25,25,51,80,0,0,0,0,0,0,0,0],"split_type":[0,0,0,0,0,0,0,0,0,0,0,0,0,0,0],"sum_hessian":[6.623423E3,2.4619836E3,4.161439E3,1.2899913E3,1.1719923E3,2.0839924E3,2.0774468E3,5.829962E2,7.069951E2,4.199946E2,7.519977E2,9.844923E2,1.0995E3,1.2419802E3,8.354666E2],"tree_param":{"num_deleted":"0","num_feature":"106","num_nodes":"15","size_leaf_vector":"1"}},{"base_weights":[-1.5025353E-1,1.1540569E-1,-3.074165E-1,-4.167644E-2,2.881939E-1,-1.320949E-1,-4.8315367E-1,1.6573933E-3,-2.127064E-3,4.410017E-3,2.0238117E-3,-2.740046E-3,-4.898398E-5,-3.911249E-3,-6.1933943E-3],"categories":[],"categories_nodes":[],"categories_segments":[],"categories_sizes":[],"default_left":[0,0,0,0,0,0,0,0,0,0,0,0,0,0,0],"id":4,"left_children":[1,3,5,7,9,11,13,-1,-1,-1,-1,-1,-1,-1,-1],"loss_changes":[2.7660776E2,6.686104E1,1.2817752E2,4.583183E1,1.5291649E1,3.7633224E1,2.5805023E1,0E0,0E0,0E0,0E0,0E0,0E0,0E0,0E0],"parents":[2147483647,0,0,1,1,2,2,3,3,4,4,5,5,6,6],"right_children":[2,4,6,8,10,12,14,-1,-1,-1,-1,-1,-1,-1,-1],"split_conditions":[4.59E-1,5.14E-1,1.3E1,-4.9E0,-5.9E0,9E0,2.3E1,1.6573933E-3,-2.127064E-3,4.410017E-3,2.0238117E-3,-2.740046E-3,-4.898398E-5,-3.911249E-3,-6.1933943E-3],"split_indices":[3,55,80,25,25,51,80,0,0,0,0,0,0,0,0],"split_type":[0,0,0,0,0,0,0,0,0,0,0,0,0,0,0],"sum_hessian":[6.623201E3,2.461942E3,4.1612593E3,1.2899785E3,1.1719634E3,2.0839695E3,2.0772898E3,5.8299054E2,7.0698804E2,4.199731E2,7.5199023E2,9.844695E2,1.0995E3,1.2419218E3,8.35368E2],"tree_param":{"num_deleted":"0","num_feature":"106","num_nodes":"15","size_leaf_vector":"1"}},{"base_weights":[1.5025353E-1,-1.15405686E-1,3.074165E-1,4.1676424E-2,-2.881939E-1,1.3209487E-1,4.831537E-1,-1.657393E-3,2.1270635E-3,-4.410017E-3,-2.0238115E-3,2.7400448E-3,4.898398E-5,3.9112484E-3,6.1933957E-3],"categories":[],"categories_nodes":[],"categories_segments":[],"categories_sizes":[],"default_left":[0,0,0,0,0,0,0,0,0,0,0,0,0,0,0],"id":5,"left_children":[1,3,5,7,9,11,13,-1,-1,-1,-1,-1,-1,-1,-1],"loss_changes":[2.7660767E2,6.686104E1,1.2817764E2,4.583181E1,1.5291634E1,3.7633198E1,2.5804993E1,0E0,0E0,0E0,0E0,0E0,0E0,0E0,0E0],"parents":[2147483647,0,0,1,1,2,2,3,3,4,4,5,5,6,6],"right_children":[2,4,6,8,10,12,14,-1,-1,-1,-1,-1,-1,-1,-1],"split_conditions":[4.59E-1,5.14E-1,1.3E1,-4.9E0,-5.9E0,9E0,2.3E1,-1.657393E-3,2.1270635E-3,-4.410017E-3,-2.0238115E-3,2.7400448E-3,4.898398E-5,3.9112484E-3,6.1933957E-3],"split_indices":[3,55,80,25,25,51,80,0,0,0,0,0,0,0,0],"split_type":[0,0,0,0,0,0,0,0,0,0,0,0,0,0,0],"sum_hessian":[6.623201E3,2.461942E3,4.1612593E3,1.2899786E3,1.1719633E3,2.0839695E3,2.0772896E3,5.8299054E2,7.0698804E2,4.199731E2,7.5199023E2,9.8446954E2,1.0995E3,1.2419216E3,8.353679E2],"tree_param":{"num_deleted":"0","num_feature":"106","num_nodes":"15","size_leaf_vector":"1"}},{"base_weights":[-1.4876045E-1,1.1425751E-1,-3.0436724E-1,-1.4184694E-1,2.1889096E-1,-1.3077767E-1,-4.7838682E-1,8.5452665E-4,-3.2259587E-3,1.1058047E-3,3.605254E-3,-2.712777E-3,-4.8494472E-5,-3.872469E-3,-6.1327294E-3],"categories":[],"categories_nodes":[],"categories_segments":[],"categories_sizes":[],"default_left":[0,0,0,0,0,0,0,0,0,0,0,0,0,0,0],"id":6,"left_children":[1,3,5,7,9,11,13,-1,-1,-1,-1,-1,-1,-1,-1],"loss_changes":[2.711308E2,6.602875E1,1.2566199E2,2.9401567E1,2.6789085E1,3.6887215E1,2.5308838E1,0E0,0E0,0E0,0E0,0E0,0E0,0E0,0E0],"parents":[2147483647,0,0,1,1,2,2,3,3,4,4,5,5,6,6],"right_children":[2,4,6,8,10,12,14,-1,-1,-1,-1,-1,-1,-1,-1],"split_conditions":[4.59E-1,-2.4E0,1.3E1,-4.9E0,2.6E1,9E0,2.3E1,8.5452665E-4,-3.2259587E-3,1.1058047E-3,3.605254E-3,-2.712777E-3,-4.8494472E-5,-3.872469E-3,-6.1327294E-3],"split_indices":[3,77,80,25,51,51,80,0,0,0,0,0,0,0,0],"split_type":[0,0,0,0,0,0,0,0,0,0,0,0,0,0,0],"sum_hessian":[6.6228315E3,2.4618682E3,4.1609634E3,7.139715E2,1.7478967E3,2.0839321E3,2.0770312E3,3.164939E2,3.9747757E2,9.9147675E2,7.564199E2,9.8443207E2,1.0995E3,1.2418254E3,8.352058E2],"tree_param":{"num_deleted":"0","num_feature":"106","num_nodes":"15","size_leaf_vector":"1"}},{"base_weights":[1.4876044E-1,-1.1425748E-1,3.043672E-1,1.4184697E-1,-2.1889095E-1,1.3077763E-1,4.783868E-1,-8.545264E-4,3.225959E-3,-1.1058045E-3,-3.605254E-3,2.712776E-3,4.8494472E-5,3.8724693E-3,6.132729E-3],"categories":[],"categories_nodes":[],"categories_segments":[],"categories_sizes":[],"default_left":[0,0,0,0,0,0,0,0,0,0,0,0,0,0,0],"id":7,"left_children":[1,3,5,7,9,11,13,-1,-1,-1,-1,-1,-1,-1,-1],"loss_changes":[2.711308E2,6.6028755E1,1.2566199E2,2.9401573E1,2.6789085E1,3.6887184E1,2.5308746E1,0E0,0E0,0E0,0E0,0E0,0E0,0E0,0E0],"parents":[2147483647,0,0,1,1,2,2,3,3,4,4,5,5,6,6],"right_children":[2,4,6,8,10,12,14,-1,-1,-1,-1,-1,-1,-1,-1],"split_conditions":[4.59E-1,-2.4E0,1.3E1,-4.9E0,2.6E1,9E0,2.3E1,-8.545264E-4,3.225959E-3,-1.1058045E-3,-3.605254E-3,2.712776E-3,4.8494472E-5,3.8724693E-3,6.132729E-3],"split_indices":[3,77,80,25,51,51,80,0,0,0,0,0,0,0,0],"split_type":[0,0,0,0,0,0,0,0,0,0,0,0,0,0,0],"sum_hessian":[6.6228315E3,2.4618682E3,4.1609634E3,7.139715E2,1.7478967E3,2.0839321E3,2.0770312E3,3.164939E2,3.9747757E2,9.914768E2,7.5641986E2,9.844321E2,1.0995E3,1.2418256E3,8.352058E2],"tree_param":{"num_deleted":"0","num_feature":"106","num_nodes":"15","size_leaf_vector":"1"}},{"base_weights":[-1.4728574E-1,1.1312031E-1,-3.0135635E-1,-3.8678583E-2,2.864785E-1,-1.2947437E-1,-4.7368935E-1,1.6580124E-3,-2.0708675E-3,4.3469607E-3,2.0316131E-3,-2.6858163E-3,-4.8009737E-5,-3.8341861E-3,-6.073107E-3],"categories":[],"categories_nodes":[],"categories_segments":[],"categories_sizes":[],"default_left":[0,0,0,0,0,0,0,0,0,0,0,0,0,0,0],"id":8,"left_children":[1,3,5,7,9,11,13,-1,-1,-1,-1,-1,-1,-1,-1],"loss_changes":[2.6576804E2,6.482036E1,1.23207886E2,4.528034E1,1.4111366E1,3.6156746E1,2.4828247E1,0E0,0E0,0E0,0E0,0E0,0E0,0E0,0E0],"parents":[2147483647,0,0,1,1,2,2,3,3,4,4,5,5,6,6],"right_children":[2,4,6,8,10,12,14,-1,-1,-1,-1,-1,-1,-1,-1],"split_conditions":[4.59E-1,5.19E-1,1.3E1,-4.9E0,-5.9E0,9E0,2.3E1,1.6580124E-3,-2.0708675E-3,4.3469607E-3,2.0316131E-3,-2.6858163E-3,-4.8009737E-5,-3.8341861E-3,-6.073107E-3],"split_indices":[3,55,80,25,25,51,80,0,0,0,0,0,0,0,0],"split_type":[0,0,0,0,0,0,0,0,0,0,0,0,0,0,0],"sum_hessian":[6.6223276E3,2.4617717E3,4.1605557E3,1.3129131E3,1.1488586E3,2.0838806E3,2.076675E3,5.929606E2,7.1995245E2,4.1189627E2,7.3696246E2,9.8438055E2,1.0994999E3,1.2416929E3,8.3498224E2],"tree_param":{"num_deleted":"0","num_feature":"106","num_nodes":"15","size_leaf_vector":"1"}},{"base_weights":[1.4728574E-1,-1.1312034E-1,3.0135635E-1,3.8678527E-2,-2.864785E-1,1.2947442E-1,4.7368935E-1,-1.6580131E-3,2.070867E-3,-4.3469607E-3,-2.0316131E-3,2.6858172E-3,4.8009737E-5,3.8341861E-3,6.073107E-3],"categories":[],"categories_nodes":[],"categories_segments":[],"categories_sizes":[],"default_left":[0,0,0,0,0,0,0,0,0,0,0,0,0,0,0],"id":9,"left_children":[1,3,5,7,9,11,13,-1,-1,-1,-1,-1,-1,-1,-1],"loss_changes":[2.6576813E2,6.4820335E1,1.23207855E2,4.5280342E1,1.4111366E1,3.6156765E1,2.4828247E1,0E0,0E0,0E0,0E0,0E0,0E0,0E0,0E0],"parents":[2147483647,0,0,1,1,2,2,3,3,4,4,5,5,6,6],"right_children":[2,4,6,8,10,12,14,-1,-1,-1,-1,-1,-1,-1,-1],"split_conditions":[4.59E-1,5.19E-1,1.3E1,-4.9E0,-5.9E0,9E0,2.3E1,-1.6580131E-3,2.070867E-3,-4.3469607E-3,-2.0316131E-3,2.6858172E-3,4.8009737E-5,3.8341861E-3,6.073107E-3],"split_indices":[3,55,80,25,25,51,80,0,0,0,0,0,0,0,0],"split_type":[0,0,0,0,0,0,0,0,0,0,0,0,0,0,0],"sum_hessian":[6.622327E3,2.4617717E3,4.1605557E3,1.3129131E3,1.1488586E3,2.0838804E3,2.076675E3,5.929606E2,7.1995245E2,4.1189627E2,7.3696246E2,9.8438055E2,1.0994999E3,1.2416929E3,8.3498224E2],"tree_param":{"num_deleted":"0","num_feature":"106","num_nodes":"15","size_leaf_vector":"1"}},{"base_weights":[-1.4582825E-1,1.1199739E-1,-2.9838318E-1,-1.4007825E-1,2.1498781E-1,-1.2818506E-1,-4.6905965E-1,8.290746E-4,-3.174081E-3,1.0868853E-3,3.5401296E-3,-2.6591632E-3,-4.7530655E-5,-3.7963912E-3,-6.014496E-3],"categories":[],"categories_nodes":[],"categories_segments":[],"categories_sizes":[],"default_left":[0,0,0,0,0,0,0,0,0,0,0,0,0,0,0],"id":10,"left_children":[1,3,5,7,9,11,13,-1,-1,-1,-1,-1,-1,-1,-1],"loss_changes":[2.6052063E2,6.3963768E1,1.2081308E2,2.8295696E1,2.5804657E1,3.5441525E1,2.436264E1,0E0,0E0,0E0,0E0,0E0,0E0,0E0,0E0],"parents":[2147483647,0,0,1,1,2,2,3,3,4,4,5,5,6,6],"right_children":[2,4,6,8,10,12,14,-1,-1,-1,-1,-1,-1,-1,-1],"split_conditions":[4.59E-1,-2.4E0,1.3E1,-4.9E0,2.6E1,9E0,2.3E1,8.290746E-4,-3.174081E-3,1.0868853E-3,3.5401296E-3,-2.6591632E-3,-4.7530655E-5,-3.7963912E-3,-6.014496E-3],"split_indices":[3,77,80,25,51,51,80,0,0,0,0,0,0,0,0],"split_type":[0,0,0,0,0,0,0,0,0,0,0,0,0,0,0],"sum_hessian":[6.6216836E3,2.4616445E3,4.160039E3,7.139199E2,1.7477245E3,2.0838152E3,2.076224E3,3.1648465E2,3.9743524E2,9.914438E2,7.562807E2,9.843152E2,1.0994999E3,1.241525E3,8.3469904E2],"tree_param":{"num_deleted":"0","num_feature":"106","num_nodes":"15","size_leaf_vector":"1"}},{"base_weights":[1.4582823E-1,-1.119974E-1,2.9838315E-1,1.4007822E-1,-2.1498783E-1,1.28185E-1,4.6905965E-1,-8.290757E-4,3.174081E-3,-1.0868851E-3,-3.54013E-3,2.6591632E-3,4.7529757E-5,3.7963912E-3,6.014496E-3],"categories":[],"categories_nodes":[],"categories_segments":[],"categories_sizes":[],"default_left":[0,0,0,0,0,0,0,0,0,0,0,0,0,0,0],"id":11,"left_children":[1,3,5,7,9,11,13,-1,-1,-1,-1,-1,-1,-1,-1],"loss_changes":[2.6052063E2,6.396376E1,1.2081311E2,2.8295715E1,2.5804665E1,3.544155E1,2.436264E1,0E0,0E0,0E0,0E0,0E0,0E0,0E0,0E0],"parents":[2147483647,0,0,1,1,2,2,3,3,4,4,5,5,6,6],"right_children":[2,4,6,8,10,12,14,-1,-1,-1,-1,-1,-1,-1,-1],"split_conditions":[4.59E-1,-2.4E0,1.3E1,-4.9E0,2.6E1,9E0,2.3E1,-8.290757E-4,3.174081E-3,-1.0868851E-3,-3.54013E-3,2.6591632E-3,4.7529757E-5,3.7963912E-3,6.014496E-3],"split_indices":[3,77,80,25,51,51,80,0,0,0,0,0,0,0,0],"split_type":[0,0,0,0,0,0,0,0,0,0,0,0,0,0,0],"sum_hessian":[6.6216836E3,2.4616445E3,4.160039E3,7.139199E2,1.7477245E3,2.0838152E3,2.076224E3,3.1648468E2,3.9743527E2,9.914438E2,7.5628076E2,9.843152E2,1.0994999E3,1.241525E3,8.3469904E2],"tree_param":{"num_deleted":"0","num_feature":"106","num_nodes":"15","size_leaf_vector":"1"}},{"base_weights":[-1.443885E-1,1.1088507E-1,-2.9544684E-1,-3.8570654E-2,2.815798E-1,-1.2690933E-1,-4.6449587E-1,1.6213105E-3,-2.0386623E-3,4.2713177E-3,1.9978038E-3,-2.6328096E-3,-4.705574E-5,-3.7590724E-3,-5.9568654E-3],"categories":[],"categories_nodes":[],"categories_segments":[],"categories_sizes":[],"default_left":[0,0,0,0,0,0,0,0,0,0,0,0,0,0,0],"id":12,"left_children":[1,3,5,7,9,11,13,-1,-1,-1,-1,-1,-1,-1,-1],"loss_changes":[2.5538171E2,6.283236E1,1.1847592E2,4.3618824E1,1.3602905E1,3.474116E1,2.3911285E1,0E0,0E0,0E0,0E0,0E0,0E0,0E0,0E0],"parents":[2147483647,0,0,1,1,2,2,3,3,4,4,5,5,6,6],"right_children":[2,4,6,8,10,12,14,-1,-1,-1,-1,-1,-1,-1,-1],"split_conditions":[4.59E-1,5.19E-1,1.3E1,-4.9E0,-5.9E0,9E0,2.3E1,1.6213105E-3,-2.0386623E-3,4.2713177E-3,1.9978038E-3,-2.6328096E-3,-4.705574E-5,-3.7590724E-3,-5.9568654E-3],"split_indices":[3,55,80,25,25,51,80,0,0,0,0,0,0,0,0],"split_type":[0,0,0,0,0,0,0,0,0,0,0,0,0,0,0],"sum_hessian":[6.6209136E3,2.461496E3,4.1594175E3,1.3128094E3,1.1486866E3,2.0837366E3,2.075681E3,5.929136E2,7.198959E2,4.1177042E2,7.3691626E2,9.842366E2,1.0994999E3,1.2413228E3,8.3435803E2],"tree_param":{"num_deleted":"0","num_feature":"106","num_nodes":"15","size_leaf_vector":"1"}},{"base_weights":[1.4438853E-1,-1.1088504E-1,2.9544687E-1,3.8570683E-2,-2.8157976E-1,1.2690938E-1,4.6449587E-1,-1.6213114E-3,2.0386635E-3,-4.2713177E-3,-1.997803E-3,2.6328107E-3,4.705574E-5,3.7590724E-3,5.9568654E-3],"categories":[],"categories_nodes":[],"categories_segments":[],"categories_sizes":[],"default_left":[0,0,0,0,0,0,0,0,0,0,0,0,0,0,0],"id":13,"left_children":[1,3,5,7,9,11,13,-1,-1,-1,-1,-1,-1,-1,-1],"loss_changes":[2.5538168E2,6.283236E1,1.1847592E2,4.361887E1,1.3602913E1,3.4741188E1,2.3911285E1,0E0,0E0,0E0,0E0,0E0,0E0,0E0,0E0],"parents":[2147483647,0,0,1,1,2,2,3,3,4,4,5,5,6,6],"right_children":[2,4,6,8,10,12,14,-1,-1,-1,-1,-1,-1,-1,-1],"split_conditions":[4.59E-1,5.19E-1,1.3E1,-4.9E0,-5.9E0,9E0,2.3E1,-1.6213114E-3,2.0386635E-3,-4.2713177E-3,-1.997803E-3,2.6328107E-3,4.705574E-5,3.7590724E-3,5.9568654E-3],"split_indices":[3,55,80,25,25,51,80,0,0,0,0,0,0,0,0],"split_type":[0,0,0,0,0,0,0,0,0,0,0,0,0,0,0],"sum_hessian":[6.6209136E3,2.461496E3,4.1594175E3,1.3128094E3,1.1486866E3,2.0837366E3,2.075681E3,5.929136E2,7.198959E2,4.1177045E2,7.3691626E2,9.842365E2,1.0994999E3,1.2413228E3,8.3435803E2],"tree_param":{"num_deleted":"0","num_feature":"106","num_nodes":"15","size_leaf_vector":"1"}},{"base_weights":[-1.4296533E-1,1.0978662E-1,-2.9254672E-1,-1.3833268E-1,2.1116461E-1,-1.2564711E-1,-4.599965E-1,8.0425944E-4,-3.1231898E-3,1.0683105E-3,3.4764893E-3,-2.6067526E-3,-4.6585294E-5,-3.722221E-3,-5.900187E-3],"categories":[],"categories_nodes":[],"categories_segments":[],"categories_sizes":[],"default_left":[0,0,0,0,0,0,0,0,0,0,0,0,0,0,0],"id":14,"left_children":[1,3,5,7,9,11,13,-1,-1,-1,-1,-1,-1,-1,-1],"loss_changes":[2.5035258E2,6.1965942E1,1.161944E2,2.7232794E1,2.4860954E1,3.4055344E1,2.3473541E1,0E0,0E0,0E0,0E0,0E0,0E0,0E0,0E0],"parents":[2147483647,0,0,1,1,2,2,3,3,4,4,5,5,6,6],"right_children":[2,4,6,8,10,12,14,-1,-1,-1,-1,-1,-1,-1,-1],"split_conditions":[4.59E-1,-2.4E0,1.3E1,-4.9E0,2.6E1,9E0,2.3E1,8.0425944E-4,-3.1231898E-3,1.0683105E-3,3.4764893E-3,-2.6067526E-3,-4.6585294E-5,-3.722221E-3,-5.900187E-3],"split_indices":[3,77,80,25,51,51,80,0,0,0,0,0,0,0,0],"split_type":[0,0,0,0,0,0,0,0,0,0,0,0,0,0,0],"sum_hessian":[6.6200107E3,2.4613176E3,4.1586934E3,7.138438E2,1.7474739E3,2.0836448E3,2.0750483E3,3.164716E2,3.9737222E2,9.91397E2,7.5607697E2,9.841449E2,1.0994999E3,1.2410874E3,8.3396106E2],"tree_param":{"num_deleted":"0","num_feature":"106","num_nodes":"15","size_leaf_vector":"1"}},{"base_weights":[1.4296533E-1,-1.09786615E-1,2.925467E-1,1.3833277E-1,-2.1116464E-1,1.2564711E-1,4.5999643E-1,-8.0425834E-4,3.123191E-3,-1.0683105E-3,-3.47649E-3,2.6067526E-3,4.6585294E-5,3.722221E-3,5.9001856E-3],"categories":[],"categories_nodes":[],"categories_segments":[],"categories_sizes":[],"default_left":[0,0,0,0,0,0,0,0,0,0,0,0,0,0,0],"id":15,"left_children":[1,3,5,7,9,11,13,-1,-1,-1,-1,-1,-1,-1,-1],"loss_changes":[2.5035255E2,6.196599E1,1.161944E2,2.723279E1,2.4860962E1,3.4055344E1,2.347345E1,0E0,0E0,0E0,0E0,0E0,0E0,0E0,0E0],"parents":[2147483647,0,0,1,1,2,2,3,3,4,4,5,5,6,6],"right_children":[2,4,6,8,10,12,14,-1,-1,-1,-1,-1,-1,-1,-1],"split_conditions":[4.59E-1,-2.4E0,1.3E1,-4.9E0,2.6E1,9E0,2.3E1,-8.0425834E-4,3.123191E-3,-1.0683105E-3,-3.47649E-3,2.6067526E-3,4.6585294E-5,3.722221E-3,5.9001856E-3],"split_indices":[3,77,80,25,51,51,80,0,0,0,0,0,0,0,0],"split_type":[0,0,0,0,0,0,0,0,0,0,0,0,0,0,0],"sum_hessian":[6.6200107E3,2.4613176E3,4.1586934E3,7.1384375E2,1.7474739E3,2.0836448E3,2.0750483E3,3.164716E2,3.973722E2,9.91397E2,7.5607697E2,9.841449E2,1.0994999E3,1.2410874E3,8.339611E2],"tree_param":{"num_deleted":"0","num_feature":"106","num_nodes":"15","size_leaf_vector":"1"}},{"base_weights":[-1.4155927E-1,1.08698435E-1,-2.8968194E-1,-3.845608E-2,2.7678162E-1,-1.2439824E-1,-4.5555964E-1,1.5854351E-3,-2.0070183E-3,4.1974816E-3,1.9646126E-3,-2.5809857E-3,-4.6120505E-5,-3.6858257E-3,-5.8444277E-3],"categories":[],"categories_nodes":[],"categories_segments":[],"categories_sizes":[],"default_left":[0,0,0,0,0,0,0,0,0,0,0,0,0,0,0],"id":16,"left_children":[1,3,5,7,9,11,13,-1,-1,-1,-1,-1,-1,-1,-1],"loss_changes":[2.4542693E2,6.0909225E1,1.1396649E2,4.2019745E1,1.3116821E1,3.3383667E1,2.3048859E1,0E0,0E0,0E0,0E0,0E0,0E0,0E0,0E0],"parents":[2147483647,0,0,1,1,2,2,3,3,4,4,5,5,6,6],"right_children":[2,4,6,8,10,12,14,-1,-1,-1,-1,-1,-1,-1,-1],"split_conditions":[4.59E-1,5.19E-1,1.3E1,-4.9E0,-5.9E0,9E0,2.3E1,1.5854351E-3,-2.0070183E-3,4.1974816E-3,1.9646126E-3,-2.5809857E-3,-4.6120505E-5,-3.6858257E-3,-5.8444277E-3],"split_indices":[3,55,80,25,25,51,80,0,0,0,0,0,0,0,0],"split_type":[0,0,0,0,0,0,0,0,0,0,0,0,0,0,0],"sum_hessian":[6.6189907E3,2.4611204E3,4.15787E3,1.3126685E3,1.1484519E3,2.0835405E3,2.0743298E3,5.928499E2,7.198185E2,4.1159885E2,7.368531E2,9.840408E2,1.0994998E3,1.2408198E3,8.335099E2],"tree_param":{"num_deleted":"0","num_feature":"106","num_nodes":"15","size_leaf_vector":"1"}},{"base_weights":[1.4155927E-1,-1.0869843E-1,2.8968194E-1,3.8456094E-2,-2.7678162E-1,1.2439819E-1,4.555597E-1,-1.5854345E-3,2.007018E-3,-4.1974816E-3,-1.9646129E-3,2.5809857E-3,4.611961E-5,3.6858267E-3,5.8444277E-3],"categories":[],"categories_nodes":[],"categories_segments":[],"categories_sizes":[],"default_left":[0,0,0,0,0,0,0,0,0,0,0,0,0,0,0],"id":17,"left_children":[1,3,5,7,9,11,13,-1,-1,-1,-1,-1,-1,-1,-1],"loss_changes":[2.4542691E2,6.0909233E1,1.13966644E2,4.2019722E1,1.3116821E1,3.3383694E1,2.3048767E1,0E0,0E0,0E0,0E0,0E0,0E0,0E0,0E0],"parents":[2147483647,0,0,1,1,2,2,3,3,4,4,5,5,6,6],"right_children":[2,4,6,8,10,12,14,-1,-1,-1,-1,-1,-1,-1,-1],"split_conditions":[4.59E-1,5.19E-1,1.3E1,-4.9E0,-5.9E0,9E0,2.3E1,-1.5854345E-3,2.007018E-3,-4.1974816E-3,-1.9646129E-3,2.5809857E-3,4.611961E-5,3.6858267E-3,5.8444277E-3],"split_indices":[3,55,80,25,25,51,80,0,0,0,0,0,0,0,0],"split_type":[0,0,0,0,0,0,0,0,0,0,0,0,0,0,0],"sum_hessian":[6.6189907E3,2.4611204E3,4.15787E3,1.3126683E3,1.1484519E3,2.0835405E3,2.0743296E3,5.928499E2,7.198185E2,4.1159885E2,7.36853E2,9.840408E2,1.0994998E3,1.2408197E3,8.335099E2],"tree_param":{"num_deleted":"0","num_feature":"106","num_nodes":"15","size_leaf_vector":"1"}},{"base_weights":[-1.4016916E-1,1.076238E-1,-2.868519E-1,-1.3660996E-1,2.074191E-1,-1.23162374E-1,-4.511841E-1,7.800621E-4,-3.0732595E-3,1.0500737E-3,3.414279E-3,-2.5555044E-3,-4.565869E-5,-3.6498797E-3,-5.7895663E-3],"categories":[],"categories_nodes":[],"categories_segments":[],"categories_sizes":[],"default_left":[0,0,0,0,0,0,0,0,0,0,0,0,0,0,0],"id":18,"left_children":[1,3,5,7,9,11,13,-1,-1,-1,-1,-1,-1,-1,-1],"loss_changes":[2.4060564E2,6.0033E1,1.1179111E2,2.6211077E1,2.3955887E1,3.272589E1,2.2636505E1,0E0,0E0,0E0,0E0,0E0,0E0,0E0,0E0],"parents":[2147483647,0,0,1,1,2,2,3,3,4,4,5,5,6,6],"right_children":[2,4,6,8,10,12,14,-1,-1,-1,-1,-1,-1,-1,-1],"split_conditions":[4.59E-1,-2.4E0,1.3E1,-4.9E0,2.6E1,9E0,2.3E1,7.800621E-4,-3.0732595E-3,1.0500737E-3,3.414279E-3,-2.5555044E-3,-4.565869E-5,-3.6498797E-3,-5.7895663E-3],"split_indices":[3,77,80,25,51,51,80,0,0,0,0,0,0,0,0],"split_type":[0,0,0,0,0,0,0,0,0,0,0,0,0,0,0],"sum_hessian":[6.6178447E3,2.4608936E3,4.1569517E3,7.137443E2,1.7471492E3,2.0834243E3,2.073527E3,3.16455E2,3.972893E2,9.913369E2,7.558122E2,9.839245E2,1.0994998E3,1.240521E3,8.330061E2],"tree_param":{"num_deleted":"0","num_feature":"106","num_nodes":"15","size_leaf_vector":"1"}},{"base_weights":[1.4016917E-1,-1.076238E-1,2.8685194E-1,1.3660999E-1,-2.0741911E-1,1.23162374E-1,4.5118415E-1,-7.800618E-4,3.0732597E-3,-1.0500739E-3,-3.414279E-3,2.5555044E-3,4.565869E-5,3.6498804E-3,5.7895663E-3],"categories":[],"categories_nodes":[],"categories_segments":[],"categories_sizes":[],"default_left":[0,0,0,0,0,0,0,0,0,0,0,0,0,0,0],"id":19,"left_children":[1,3,5,7,9,11,13,-1,-1,-1,-1,-1,-1,-1,-1],"loss_changes":[2.4060568E2,6.0033024E1,1.1179114E2,2.6211075E1,2.395588E1,3.272589E1,2.2636475E1,0E0,0E0,0E0,0E0,0E0,0E0,0E0,0E0],"parents":[2147483647,0,0,1,1,2,2,3,3,4,4,5,5,6,6],"right_children":[2,4,6,8,10,12,14,-1,-1,-1,-1,-1,-1,-1,-1],"split_conditions":[4.59E-1,-2.4E0,1.3E1,-4.9E0,2.6E1,9E0,2.3E1,-7.800618E-4,3.0732597E-3,-1.0500739E-3,-3.414279E-3,2.5555044E-3,4.565869E-5,3.6498804E-3,5.7895663E-3],"split_indices":[3,77,80,25,51,51,80,0,0,0,0,0,0,0,0],"split_type":[0,0,0,0,0,0,0,0,0,0,0,0,0,0,0],"sum_hessian":[6.6178447E3,2.4608936E3,4.1569517E3,7.137443E2,1.7471492E3,2.0834243E3,2.073527E3,3.1645496E2,3.9728934E2,9.91337E2,7.558122E2,9.839245E2,1.0994998E3,1.240521E3,8.330061E2],"tree_param":{"num_deleted":"0","num_feature":"106","num_nodes":"15","size_leaf_vector":"1"}},{"base_weights":[-1.3879564E-1,1.0655906E-1,-2.84056E-1,-4.108449E-2,2.6901945E-1,-1.2193963E-1,-4.468682E-1,1.4719721E-3,-2.035171E-3,4.1124853E-3,1.8923595E-3,-2.5303059E-3,-4.520343E-5,-3.6143735E-3,-5.735573E-3],"categories":[],"categories_nodes":[],"categories_segments":[],"categories_sizes":[],"default_left":[0,0,0,0,0,0,0,0,0,0,0,0,0,0,0],"id":20,"left_children":[1,3,5,7,9,11,13,-1,-1,-1,-1,-1,-1,-1,-1],"loss_changes":[2.3588324E2,5.9056747E1,1.09665955E2,3.9497486E1,1.3223167E1,3.2081615E1,2.2236053E1,0E0,0E0,0E0,0E0,0E0,0E0,0E0,0E0],"parents":[2147483647,0,0,1,1,2,2,3,3,4,4,5,5,6,6],"right_children":[2,4,6,8,10,12,14,-1,-1,-1,-1,-1,-1,-1,-1],"split_conditions":[4.59E-1,5.14E-1,1.3E1,-4.7E0,-5.9E0,9E0,2.3E1,1.4719721E-3,-2.035171E-3,4.1124853E-3,1.8923595E-3,-2.5303059E-3,-4.520343E-5,-3.6143735E-3,-5.735573E-3],"split_indices":[3,55,80,25,25,51,80,0,0,0,0,0,0,0,0],"split_type":[0,0,0,0,0,0,0,0,0,0,0,0,0,0,0],"sum_hessian":[6.6165894E3,2.4606497E3,4.1559395E3,1.2895015E3,1.1711482E3,2.0832961E3,2.0726433E3,5.9727344E2,6.922281E2,4.193765E2,7.5177167E2,9.837965E2,1.0994996E3,1.2401919E3,8.3245154E2],"tree_param":{"num_deleted":"0","num_feature":"106","num_nodes":"15","size_leaf_vector":"1"}},{"base_weights":[1.387956E-1,-1.06559075E-1,2.8405595E-1,4.1084472E-2,-2.6901948E-1,1.2193958E-1,4.4686815E-1,-1.4719721E-3,2.0351708E-3,-4.1124844E-3,-1.8923603E-3,2.5303059E-3,4.5202538E-5,3.6143726E-3,5.735573E-3],"categories":[],"categories_nodes":[],"categories_segments":[],"categories_sizes":[],"default_left":[0,0,0,0,0,0,0,0,0,0,0,0,0,0,0],"id":21,"left_children":[1,3,5,7,9,11,13,-1,-1,-1,-1,-1,-1,-1,-1],"loss_changes":[2.3588315E2,5.9056755E1,1.09665955E2,3.949748E1,1.3223152E1,3.2081642E1,2.2236084E1,0E0,0E0,0E0,0E0,0E0,0E0,0E0,0E0],"parents":[2147483647,0,0,1,1,2,2,3,3,4,4,5,5,6,6],"right_children":[2,4,6,8,10,12,14,-1,-1,-1,-1,-1,-1,-1,-1],"split_conditions":[4.59E-1,5.14E-1,1.3E1,-4.7E0,-5.9E0,9E0,2.3E1,-1.4719721E-3,2.0351708E-3,-4.1124844E-3,-1.8923603E-3,2.5303059E-3,4.5202538E-5,3.6143726E-3,5.735573E-3],"split_indices":[3,55,80,25,25,51,80,0,0,0,0,0,0,0,0],"split_type":[0,0,0,0,0,0,0,0,0,0,0,0,0,0,0],"sum_hessian":[6.6165894E3,2.4606497E3,4.15594E3,1.2895016E3,1.1711482E3,2.0832964E3,2.0726436E3,5.9727344E2,6.9222815E2,4.1937653E2,7.517716E2,9.837965E2,1.0994998E3,1.240192E3,8.3245154E2],"tree_param":{"num_deleted":"0","num_feature":"106","num_nodes":"15","size_leaf_vector":"1"}},{"base_weights":[-1.374375E-1,1.05507426E-1,-2.8129342E-1,-1.3489138E-1,2.0374157E-1,-1.2072961E-1,-4.426105E-1,7.571948E-4,-3.0245169E-3,1.0321031E-3,3.35336E-3,-2.5053853E-3,-4.4751145E-5,-3.5792962E-3,-5.682424E-3],"categories":[],"categories_nodes":[],"categories_segments":[],"categories_sizes":[],"default_left":[0,0,0,0,0,0,0,0,0,0,0,0,0,0,0],"id":22,"left_children":[1,3,5,7,9,11,13,-1,-1,-1,-1,-1,-1,-1,-1],"loss_changes":[2.3126028E2,5.8153847E1,1.0758981E2,2.5241993E1,2.3087074E1,3.1450624E1,2.1847107E1,0E0,0E0,0E0,0E0,0E0,0E0,0E0,0E0],"parents":[2147483647,0,0,1,1,2,2,3,3,4,4,5,5,6,6],"right_children":[2,4,6,8,10,12,14,-1,-1,-1,-1,-1,-1,-1,-1],"split_conditions":[4.59E-1,-2.4E0,1.3E1,-4.9E0,2.6E1,9E0,2.3E1,7.571948E-4,-3.0245169E-3,1.0321031E-3,3.35336E-3,-2.5053853E-3,-4.4751145E-5,-3.5792962E-3,-5.682424E-3],"split_indices":[3,77,80,25,51,51,80,0,0,0,0,0,0,0,0],"split_type":[0,0,0,0,0,0,0,0,0,0,0,0,0,0,0],"sum_hessian":[6.6152173E3,2.460379E3,4.1548384E3,7.1362384E2,1.746755E3,2.083157E3,2.0716814E3,3.1643573E2,3.971881E2,9.9126495E2,7.5549E2,9.836572E2,1.0994996E3,1.2398339E3,8.318476E2],"tree_param":{"num_deleted":"0","num_feature":"106","num_nodes":"15","size_leaf_vector":"1"}},{"base_weights":[1.374375E-1,-1.0550741E-1,2.8129342E-1,1.3489139E-1,-2.0374157E-1,1.20729595E-1,4.426105E-1,-7.571948E-4,3.0245169E-3,-1.0321031E-3,-3.3533599E-3,2.5053853E-3,4.4751145E-5,3.5792969E-3,5.6824237E-3],"categories":[],"categories_nodes":[],"categories_segments":[],"categories_sizes":[],"default_left":[0,0,0,0,0,0,0,0,0,0,0,0,0,0,0],"id":23,"left_children":[1,3,5,7,9,11,13,-1,-1,-1,-1,-1,-1,-1,-1],"loss_changes":[2.3126028E2,5.8153862E1,1.0758984E2,2.5241993E1,2.3087051E1,3.1450611E1,2.1847046E1,0E0,0E0,0E0,0E0,0E0,0E0,0E0,0E0],"parents":[2147483647,0,0,1,1,2,2,3,3,4,4,5,5,6,6],"right_children":[2,4,6,8,10,12,14,-1,-1,-1,-1,-1,-1,-1,-1],"split_conditions":[4.59E-1,-2.4E0,1.3E1,-4.9E0,2.6E1,9E0,2.3E1,-7.571948E-4,3.0245169E-3,-1.0321031E-3,-3.3533599E-3,2.5053853E-3,4.4751145E-5,3.5792969E-3,5.6824237E-3],"split_indices":[3,77,80,25,51,51,80,0,0,0,0,0,0,0,0],"split_type":[0,0,0,0,0,0,0,0,0,0,0,0,0,0,0],"sum_hessian":[6.6152173E3,2.460379E3,4.1548384E3,7.1362384E2,1.746755E3,2.0831567E3,2.0716814E3,3.1643573E2,3.9718814E2,9.9126495E2,7.5549005E2,9.8365717E2,1.0994996E3,1.2398339E3,8.3184766E2],"tree_param":{"num_deleted":"0","num_feature":"106","num_nodes":"15","size_leaf_vector":"1"}},{"base_weights":[-1.3609532E-1,1.04465514E-1,-2.7856365E-1,-3.82345E-2,2.6750463E-1,-1.1953231E-1,-4.384096E-1,1.5164795E-3,-1.9461781E-3,4.055069E-3,1.9004256E-3,-2.4807383E-3,-4.4304517E-5,-3.5446417E-3,-5.6300936E-3],"categories":[],"categories_nodes":[],"categories_segments":[],"categories_sizes":[],"default_left":[0,0,0,0,0,0,0,0,0,0,0,0,0,0,0],"id":24,"left_children":[1,3,5,7,9,11,13,-1,-1,-1,-1,-1,-1,-1,-1],"loss_changes":[2.267315E2,5.7269207E1,1.0556094E2,3.90267E1,1.2203629E1,3.0832544E1,2.1468964E1,0E0,0E0,0E0,0E0,0E0,0E0,0E0,0E0],"parents":[2147483647,0,0,1,1,2,2,3,3,4,4,5,5,6,6],"right_children":[2,4,6,8,10,12,14,-1,-1,-1,-1,-1,-1,-1,-1],"split_conditions":[4.59E-1,5.19E-1,1.3E1,-4.9E0,-5.9E0,9E0,2.3E1,1.5164795E-3,-1.9461781E-3,4.055069E-3,1.9004256E-3,-2.4807383E-3,-4.4304517E-5,-3.5446417E-3,-5.6300936E-3],"split_indices":[3,55,80,25,25,51,80,0,0,0,0,0,0,0,0],"split_type":[0,0,0,0,0,0,0,0,0,0,0,0,0,0,0],"sum_hessian":[6.613741E3,2.4600916E3,4.15365E3,1.312282E3,1.1478094E3,2.0830063E3,2.0706436E3,5.9267694E2,7.19605E2,4.1112906E2,7.366804E2,9.835068E2,1.0994996E3,1.2394474E3,8.3119617E2],"tree_param":{"num_deleted":"0","num_feature":"106","num_nodes":"15","size_leaf_vector":"1"}},{"base_weights":[1.360953E-1,-1.0446548E-1,2.785636E-1,3.8234558E-2,-2.6750463E-1,1.19532205E-1,4.384096E-1,-1.5164787E-3,1.9461787E-3,-4.055069E-3,-1.9004256E-3,2.4807374E-3,4.4303324E-5,3.5446417E-3,5.6300936E-3],"categories":[],"categories_nodes":[],"categories_segments":[],"categories_sizes":[],"default_left":[0,0,0,0,0,0,0,0,0,0,0,0,0,0,0],"id":25,"left_children":[1,3,5,7,9,11,13,-1,-1,-1,-1,-1,-1,-1,-1],"loss_changes":[2.267314E2,5.726922E1,1.05560974E2,3.90267E1,1.2203636E1,3.0832552E1,2.1468964E1,0E0,0E0,0E0,0E0,0E0,0E0,0E0,0E0],"parents":[2147483647,0,0,1,1,2,2,3,3,4,4,5,5,6,6],"right_children":[2,4,6,8,10,12,14,-1,-1,-1,-1,-1,-1,-1,-1],"split_conditions":[4.59E-1,5.19E-1,1.3E1,-4.9E0,-5.9E0,9E0,2.3E1,-1.5164787E-3,1.9461787E-3,-4.055069E-3,-1.9004256E-3,2.4807374E-3,4.4303324E-5,3.5446417E-3,5.6300936E-3],"split_indices":[3,55,80,25,25,51,80,0,0,0,0,0,0,0,0],"split_type":[0,0,0,0,0,0,0,0,0,0,0,0,0,0,0],"sum_hessian":[6.613741E3,2.4600913E3,4.15365E3,1.312282E3,1.1478094E3,2.0830066E3,2.0706436E3,5.9267694E2,7.19605E2,4.1112903E2,7.366804E2,9.8350684E2,1.0994996E3,1.2394474E3,8.311961E2],"tree_param":{"num_deleted":"0","num_feature":"106","num_nodes":"15","size_leaf_vector":"1"}},{"base_weights":[-1.3476804E-1,1.03436455E-1,-2.7586603E-1,-1.3321266E-1,2.0014484E-1,-1.1834743E-1,-4.342642E-1,7.341773E-4,-2.9764138E-3,1.0145218E-3,3.2938574E-3,-2.456359E-3,-4.3862357E-5,-3.5104011E-3,-5.5785603E-3],"categories":[],"categories_nodes":[],"categories_segments":[],"categories_sizes":[],"default_left":[0,0,0,0,0,0,0,0,0,0,0,0,0,0,0],"id":26,"left_children":[1,3,5,7,9,11,13,-1,-1,-1,-1,-1,-1,-1,-1],"loss_changes":[2.2229776E2,5.6343872E1,1.03578125E2,2.4297064E1,2.2253548E1,3.0227074E1,2.1101318E1,0E0,0E0,0E0,0E0,0E0,0E0,0E0,0E0],"parents":[2147483647,0,0,1,1,2,2,3,3,4,4,5,5,6,6],"right_children":[2,4,6,8,10,12,14,-1,-1,-1,-1,-1,-1,-1,-1],"split_conditions":[4.59E-1,-2.4E0,1.3E1,-4.9E0,2.6E1,9E0,2.3E1,7.341773E-4,-2.9764138E-3,1.0145218E-3,3.2938574E-3,-2.456359E-3,-4.3862357E-5,-3.5104011E-3,-5.5785603E-3],"split_indices":[3,77,80,25,51,51,80,0,0,0,0,0,0,0,0],"split_type":[0,0,0,0,0,0,0,0,0,0,0,0,0,0,0],"sum_hessian":[6.6121533E3,2.4597761E3,4.1523774E3,7.134817E2,1.7462944E3,2.0828452E3,2.069532E3,3.1641293E2,3.9706876E2,9.9118085E2,7.551136E2,9.8334576E2,1.0994995E3,1.2390336E3,8.304985E2],"tree_param":{"num_deleted":"0","num_feature":"106","num_nodes":"15","size_leaf_vector":"1"}},{"base_weights":[1.3476804E-1,-1.0343647E-1,2.7586603E-1,1.3321263E-1,-2.0014484E-1,1.1834739E-1,4.3426427E-1,-7.341776E-4,2.9764138E-3,-1.0145216E-3,-3.2938581E-3,2.4563593E-3,4.3861466E-5,3.5104016E-3,5.578561E-3],"categories":[],"categories_nodes":[],"categories_segments":[],"categories_sizes":[],"default_left":[0,0,0,0,0,0,0,0,0,0,0,0,0,0,0],"id":27,"left_children":[1,3,5,7,9,11,13,-1,-1,-1,-1,-1,-1,-1,-1],"loss_changes":[2.2229782E2,5.6343857E1,1.03578186E2,2.4297066E1,2.2253563E1,3.0227106E1,2.1101288E1,0E0,0E0,0E0,0E0,0E0,0E0,0E0,0E0],"parents":[2147483647,0,0,1,1,2,2,3,3,4,4,5,5,6,6],"right_children":[2,4,6,8,10,12,14,-1,-1,-1,-1,-1,-1,-1,-1],"split_conditions":[4.59E-1,-2.4E0,1.3E1,-4.9E0,2.6E1,9E0,2.3E1,-7.341776E-4,2.9764138E-3,-1.0145216E-3,-3.2938581E-3,2.4563593E-3,4.3861466E-5,3.5104016E-3,5.578561E-3],"split_indices":[3,77,80,25,51,51,80,0,0,0,0,0,0,0,0],"split_type":[0,0,0,0,0,0,0,0,0,0,0,0,0,0,0],"sum_hessian":[6.612154E3,2.4597761E3,4.1523774E3,7.134817E2,1.7462944E3,2.0828455E3,2.069532E3,3.1641296E2,3.9706873E2,9.9118085E2,7.551136E2,9.833458E2,1.0994996E3,1.2390336E3,8.304985E2],"tree_param":{"num_deleted":"0","num_feature":"106","num_nodes":"15","size_leaf_vector":"1"}},{"base_weights":[-1.3345614E-1,1.0241672E-1,-2.731999E-1,-3.8101327E-2,2.6299003E-1,-1.17174834E-1,-4.3017298E-1,1.4829412E-3,-1.9161267E-3,3.986234E-3,1.8690034E-3,-2.3427962E-3,4.3927263E-5,-3.476565E-3,-5.5278013E-3],"categories":[],"categories_nodes":[],"categories_segments":[],"categories_sizes":[],"default_left":[0,0,0,0,0,0,0,0,0,0,0,0,0,0,0],"id":28,"left_children":[1,3,5,7,9,11,13,-1,-1,-1,-1,-1,-1,-1,-1],"loss_changes":[2.1795369E2,5.55262E1,1.0163986E2,3.759952E1,1.1777397E1,2.9664518E1,2.0743622E1,0E0,0E0,0E0,0E0,0E0,0E0,0E0,0E0],"parents":[2147483647,0,0,1,1,2,2,3,3,4,4,5,5,6,6],"right_children":[2,4,6,8,10,12,14,-1,-1,-1,-1,-1,-1,-1,-1],"split_conditions":[4.59E-1,5.19E-1,1.3E1,-4.9E0,-5.9E0,9E0,2.3E1,1.4829412E-3,-1.9161267E-3,3.986234E-3,1.8690034E-3,-2.3427962E-3,4.3927263E-5,-3.476565E-3,-5.5278013E-3],"split_indices":[3,55,80,25,25,29,80,0,0,0,0,0,0,0,0],"split_type":[0,0,0,0,0,0,0,0,0,0,0,0,0,0,0],"sum_hessian":[6.610471E3,2.4594475E3,4.1510234E3,1.3120406E3,1.1474069E3,2.082674E3,2.0683494E3,5.9256934E2,7.194713E2,4.1083517E2,7.3657166E2,1.0603359E3,1.0223381E3,1.2385933E3,8.297562E2],"tree_param":{"num_deleted":"0","num_feature":"106","num_nodes":"15","size_leaf_vector":"1"}},{"base_weights":[1.3345617E-1,-1.024167E-1,2.7319992E-1,3.8101338E-2,-2.6299E-1,1.1717482E-1,4.3017304E-1,-1.4829418E-3,1.9161273E-3,-3.986234E-3,-1.8690033E-3,2.3427962E-3,-4.39273E-5,3.4765664E-3,5.5278013E-3],"categories":[],"categories_nodes":[],"categories_segments":[],"categories_sizes":[],"default_left":[0,0,0,0,0,0,0,0,0,0,0,0,0,0,0],"id":29,"left_children":[1,3,5,7,9,11,13,-1,-1,-1,-1,-1,-1,-1,-1],"loss_changes":[2.179537E2,5.5526196E1,1.0163992E2,3.759954E1,1.1777397E1,2.9664509E1,2.0743591E1,0E0,0E0,0E0,0E0,0E0,0E0,0E0,0E0],"parents":[2147483647,0,0,1,1,2,2,3,3,4,4,5,5,6,6],"right_children":[2,4,6,8,10,12,14,-1,-1,-1,-1,-1,-1,-1,-1],"split_conditions":[4.59E-1,5.19E-1,1.3E1,-4.9E0,-5.9E0,9E0,2.3E1,-1.4829418E-3,1.9161273E-3,-3.986234E-3,-1.8690033E-3,2.3427962E-3,-4.39273E-5,3.4765664E-3,5.5278013E-3],"split_indices":[3,55,80,25,25,29,80,0,0,0,0,0,0,0,0],"split_type":[0,0,0,0,0,0,0,0,0,0,0,0,0,0,0],"sum_hessian":[6.6104707E3,2.4594475E3,4.1510234E3,1.3120406E3,1.1474069E3,2.082674E3,2.0683494E3,5.9256934E2,7.194713E2,4.1083517E2,7.3657166E2,1.0603359E3,1.0223381E3,1.2385933E3,8.297562E2],"tree_param":{"num_deleted":"0","num_feature":"106","num_nodes":"15","size_leaf_vector":"1"}},{"base_weights":[-1.3215813E-1,1.0140957E-1,-2.70563E-1,-1.3155529E-1,1.966195E-1,-1.1601289E-1,-4.2613477E-1,7.1173435E-4,-2.9291932E-3,9.972574E-4,3.2356407E-3,-2.4121243E-3,-3.9589922E-5,-3.4431294E-3,-5.4777944E-3],"categories":[],"categories_nodes":[],"categories_segments":[],"categories_sizes":[],"default_left":[0,0,0,0,0,0,0,0,0,0,0,0,0,0,0],"id":30,"left_children":[1,3,5,7,9,11,13,-1,-1,-1,-1,-1,-1,-1,-1],"loss_changes":[2.1369893E2,5.459209E1,9.974652E1,2.3388483E1,2.1453262E1,2.9228945E1,2.0395538E1,0E0,0E0,0E0,0E0,0E0,0E0,0E0,0E0],"parents":[2147483647,0,0,1,1,2,2,3,3,4,4,5,5,6,6],"right_children":[2,4,6,8,10,12,14,-1,-1,-1,-1,-1,-1,-1,-1],"split_conditions":[4.59E-1,-2.4E0,1.3E1,-4.9E0,2.6E1,9E0,2.3E1,7.1173435E-4,-2.9291932E-3,9.972574E-4,3.2356407E-3,-2.4121243E-3,-3.9589922E-5,-3.4431294E-3,-5.4777944E-3],"split_indices":[3,77,80,25,51,51,80,0,0,0,0,0,0,0,0],"split_type":[0,0,0,0,0,0,0,0,0,0,0,0,0,0,0],"sum_hessian":[6.608709E3,2.4590916E3,4.1496177E3,7.1331976E2,1.7457717E3,2.0825195E3,2.0670981E3,3.163874E2,3.969324E2,9.910855E2,7.5468616E2,9.8302167E2,1.0994978E3,1.2381274E3,8.289708E2],"tree_param":{"num_deleted":"0","num_feature":"106","num_nodes":"15","size_leaf_vector":"1"}},{"base_weights":[1.3215813E-1,-1.0140957E-1,2.70563E-1,1.3155526E-1,-1.9661948E-1,1.16012916E-1,4.261347E-1,-7.1173516E-4,2.9291932E-3,-9.972571E-4,-3.2356407E-3,2.4121245E-3,3.9590097E-5,3.4431282E-3,5.477795E-3],"categories":[],"categories_nodes":[],"categories_segments":[],"categories_sizes":[],"default_left":[0,0,0,0,0,0,0,0,0,0,0,0,0,0,0],"id":31,"left_children":[1,3,5,7,9,11,13,-1,-1,-1,-1,-1,-1,-1,-1],"loss_changes":[2.1369891E2,5.459207E1,9.974646E1,2.3388493E1,2.1453278E1,2.9228945E1,2.0395569E1,0E0,0E0,0E0,0E0,0E0,0E0,0E0,0E0],"parents":[2147483647,0,0,1,1,2,2,3,3,4,4,5,5,6,6],"right_children":[2,4,6,8,10,12,14,-1,-1,-1,-1,-1,-1,-1,-1],"split_conditions":[4.59E-1,-2.4E0,1.3E1,-4.9E0,2.6E1,9E0,2.3E1,-7.1173516E-4,2.9291932E-3,-9.972571E-4,-3.2356407E-3,2.4121245E-3,3.9590097E-5,3.4431282E-3,5.477795E-3],"split_indices":[3,77,80,25,51,51,80,0,0,0,0,0,0,0,0],"split_type":[0,0,0,0,0,0,0,0,0,0,0,0,0,0,0],"sum_hessian":[6.6087095E3,2.4590916E3,4.1496177E3,7.1331976E2,1.7457717E3,2.0825195E3,2.0670981E3,3.163874E2,3.969324E2,9.910855E2,7.546862E2,9.830217E2,1.0994979E3,1.2381274E3,8.289708E2],"tree_param":{"num_deleted":"0","num_feature":"106","num_nodes":"15","size_leaf_vector":"1"}},{"base_weights":[-1.3087554E-1,1.00411415E-1,-2.6795822E-1,-3.7962463E-2,2.585646E-1,-3.7295073E-1,-4.2490628E-2,1.4501449E-3,-1.8865855E-3,2.0033082E-3,4.309999E-3,-3.0241963E-3,-5.4285205E-3,8.629897E-4,-1.7405387E-3],"categories":[],"categories_nodes":[],"categories_segments":[],"categories_sizes":[],"default_left":[0,0,0,0,0,0,0,0,0,0,0,0,0,0,0],"id":32,"left_children":[1,3,5,7,9,11,13,-1,-1,-1,-1,-1,-1,-1,-1],"loss_changes":[2.0953119E2,5.383908E1,9.820355E1,3.622555E1,1.144091E1,3.375757E1,2.2370365E1,0E0,0E0,0E0,0E0,0E0,0E0,0E0,0E0],"parents":[2147483647,0,0,1,1,2,2,3,3,4,4,5,5,6,6],"right_children":[2,4,6,8,10,12,14,-1,-1,-1,-1,-1,-1,-1,-1],"split_conditions":[4.59E-1,5.19E-1,3E0,-4.9E0,2.8E1,2.3E1,3.1E0,1.4501449E-3,-1.8865855E-3,2.0033082E-3,4.309999E-3,-3.0241963E-3,-5.4285205E-3,8.629897E-4,-1.7405387E-3],"split_indices":[3,55,77,25,51,80,25,0,0,0,0,0,0,0,0],"split_type":[0,0,0,0,0,0,0,0,0,0,0,0,0,0,0],"sum_hessian":[6.6068345E3,2.458724E3,4.1481104E3,1.3117697E3,1.1469543E3,2.8297427E3,1.3183679E3,5.924489E2,7.1932074E2,8.590149E2,2.8793945E2,2.001599E3,8.281436E2,6.663804E2,6.5198755E2],"tree_param":{"num_deleted":"0","num_feature":"106","num_nodes":"15","size_leaf_vector":"1"}},{"base_weights":[1.3087551E-1,-1.0041143E-1,2.679582E-1,3.796244E-2,-2.585646E-1,3.7295067E-1,4.2490583E-2,-1.4501455E-3,1.8865855E-3,-2.0033082E-3,-4.309999E-3,3.024196E-3,5.428519E-3,-8.6299045E-4,1.7405387E-3],"categories":[],"categories_nodes":[],"categories_segments":[],"categories_sizes":[],"default_left":[0,0,0,0,0,0,0,0,0,0,0,0,0,0,0],"id":33,"left_children":[1,3,5,7,9,11,13,-1,-1,-1,-1,-1,-1,-1,-1],"loss_changes":[2.0953113E2,5.3839066E1,9.820358E1,3.6225567E1,1.144091E1,3.375757E1,2.2370373E1,0E0,0E0,0E0,0E0,0E0,0E0,0E0,0E0],"parents":[2147483647,0,0,1,1,2,2,3,3,4,4,5,5,6,6],"right_children":[2,4,6,8,10,12,14,-1,-1,-1,-1,-1,-1,-1,-1],"split_conditions":[4.59E-1,5.19E-1,3E0,-4.9E0,2.8E1,2.3E1,3.1E0,-1.4501455E-3,1.8865855E-3,-2.0033082E-3,-4.309999E-3,3.024196E-3,5.428519E-3,-8.6299045E-4,1.7405387E-3],"split_indices":[3,55,77,25,51,80,25,0,0,0,0,0,0,0,0],"split_type":[0,0,0,0,0,0,0,0,0,0,0,0,0,0,0],"sum_hessian":[6.6068345E3,2.4587239E3,4.148111E3,1.3117697E3,1.1469543E3,2.8297427E3,1.3183679E3,5.924489E2,7.1932074E2,8.590149E2,2.8793945E2,2.001599E3,8.281437E2,6.6638043E2,6.5198755E2],"tree_param":{"num_deleted":"0","num_feature":"106","num_nodes":"15","size_leaf_vector":"1"}},{"base_weights":[-1.2960467E-1,-3.102251E-1,4.2867918E-2,-1.6639668E-1,-4.5768353E-1,-1.9065396E-1,1.5182026E-1,-2.4556306E-3,2.7201895E-4,-3.7357467E-3,-5.863332E-3,5.002085E-4,-3.2470482E-3,4.788973E-4,2.8934658E-3],"categories":[],"categories_nodes":[],"categories_segments":[],"categories_sizes":[],"default_left":[0,0,0,0,0,0,0,0,0,0,0,0,0,0,0],"id":34,"left_children":[1,3,5,7,9,11,13,-1,-1,-1,-1,-1,-1,-1,-1],"loss_changes":[2.0580234E2,6.8361786E1,8.602729E1,2.506731E1,1.7015564E1,3.472299E1,3.293644E1,0E0,0E0,0E0,0E0,0E0,0E0,0E0,0E0],"parents":[2147483647,0,0,1,1,2,2,3,3,4,4,5,5,6,6],"right_children":[2,4,6,8,10,12,14,-1,-1,-1,-1,-1,-1,-1,-1],"split_conditions":[1.5E1,1.3E1,-1.9E0,6E0,2.3E1,-4.6E0,2.4E1,-2.4556306E-3,2.7201895E-4,-3.7357467E-3,-5.863332E-3,5.002085E-4,-3.2470482E-3,4.788973E-4,2.8934658E-3],"split_indices":[51,80,77,77,80,25,51,0,0,0,0,0,0,0,0],"split_type":[0,0,0,0,0,0,0,0,0,0,0,0,0,0,0],"sum_hessian":[6.6049507E3,3.2258787E3,3.379072E3,1.6341174E3,1.5917612E3,1.0747556E3,2.3043164E3,1.1596461E3,4.7447125E2,9.648581E2,6.2690314E2,3.8469727E2,6.9005835E2,1.313235E3,9.910815E2],"tree_param":{"num_deleted":"0","num_feature":"106","num_nodes":"15","size_leaf_vector":"1"}},{"base_weights":[1.2960468E-1,3.102251E-1,-4.2867903E-2,1.6639669E-1,4.5768353E-1,1.9065395E-1,-1.5182023E-1,2.4556308E-3,-2.7201875E-4,3.7357467E-3,5.863332E-3,-5.0020916E-4,3.2470482E-3,-4.7889698E-4,-2.8934653E-3],"categories":[],"categories_nodes":[],"categories_segments":[],"categories_sizes":[],"default_left":[0,0,0,0,0,0,0,0,0,0,0,0,0,0,0],"id":35,"left_children":[1,3,5,7,9,11,13,-1,-1,-1,-1,-1,-1,-1,-1],"loss_changes":[2.0580234E2,6.8361755E1,8.6027275E1,2.5067307E1,1.7015564E1,3.4722992E1,3.2936455E1,0E0,0E0,0E0,0E0,0E0,0E0,0E0,0E0],"parents":[2147483647,0,0,1,1,2,2,3,3,4,4,5,5,6,6],"right_children":[2,4,6,8,10,12,14,-1,-1,-1,-1,-1,-1,-1,-1],"split_conditions":[1.5E1,1.3E1,-1.9E0,6E0,2.3E1,-4.6E0,2.4E1,2.4556308E-3,-2.7201875E-4,3.7357467E-3,5.863332E-3,-5.0020916E-4,3.2470482E-3,-4.7889698E-4,-2.8934653E-3],"split_indices":[51,80,77,77,80,25,51,0,0,0,0,0,0,0,0],"split_type":[0,0,0,0,0,0,0,0,0,0,0,0,0,0,0],"sum_hessian":[6.6049507E3,3.2258787E3,3.379072E3,1.6341174E3,1.5917612E3,1.0747556E3,2.3043164E3,1.1596461E3,4.7447125E2,9.648581E2,6.2690314E2,3.8469724E2,6.900584E2,1.313235E3,9.910815E2],"tree_param":{"num_deleted":"0","num_feature":"106","num_nodes":"15","size_leaf_vector":"1"}},{"base_weights":[-1.2834708E-1,1.1722861E-1,-2.5291124E-1,-1.0104099E-1,2.0760424E-1,-8.747723E-2,-3.973192E-1,6.9349713E-4,-2.590748E-3,-1.4282754E-3,2.444463E-3,-2.239432E-3,2.3178737E-4,-4.8874025E-3,-2.8573622E-3],"categories":[],"categories_nodes":[],"categories_segments":[],"categories_sizes":[],"default_left":[0,0,0,0,0,0,0,0,0,0,0,0,0,0,0],"id":36,"left_children":[1,3,5,7,9,11,13,-1,-1,-1,-1,-1,-1,-1,-1],"loss_changes":[2.0204808E2,4.387585E1,1.0464908E2,1.7565233E1,2.0337189E1,3.0864506E1,2.3724152E1,0E0,0E0,0E0,0E0,0E0,0E0,0E0,0E0],"parents":[2147483647,0,0,1,1,2,2,3,3,4,4,5,5,6,6],"right_children":[2,4,6,8,10,12,14,-1,-1,-1,-1,-1,-1,-1,-1],"split_conditions":[4.4E-1,-2.4E0,1.2E1,-4.9E0,5E0,9E0,-1.7E0,6.9349713E-4,-2.590748E-3,-1.4282754E-3,2.444463E-3,-2.239432E-3,2.3178737E-4,-4.8874025E-3,-2.8573622E-3],"split_indices":[3,77,80,25,53,51,77,0,0,0,0,0,0,0,0],"split_type":[0,0,0,0,0,0,0,0,0,0,0,0,0,0,0],"sum_hessian":[6.603084E3,2.2221733E3,4.3809106E3,6.5064874E2,1.5715245E3,2.0425583E3,2.3383523E3,3.1335416E2,3.3729462E2,1.4922829E2,1.4222963E3,9.1415594E2,1.1284023E3,1.2834382E3,1.0549142E3],"tree_param":{"num_deleted":"0","num_feature":"106","num_nodes":"15","size_leaf_vector":"1"}},{"base_weights":[1.2834708E-1,-1.1722862E-1,2.5291124E-1,1.0104099E-1,-2.0760424E-1,8.747724E-2,3.973192E-1,-6.9349713E-4,2.590748E-3,1.4282755E-3,-2.444463E-3,2.239432E-3,-2.3178737E-4,4.887403E-3,2.8573622E-3],"categories":[],"categories_nodes":[],"categories_segments":[],"categories_sizes":[],"default_left":[0,0,0,0,0,0,0,0,0,0,0,0,0,0,0],"id":37,"left_children":[1,3,5,7,9,11,13,-1,-1,-1,-1,-1,-1,-1,-1],"loss_changes":[2.0204808E2,4.387585E1,1.0464905E2,1.7565233E1,2.0337196E1,3.0864506E1,2.3724213E1,0E0,0E0,0E0,0E0,0E0,0E0,0E0,0E0],"parents":[2147483647,0,0,1,1,2,2,3,3,4,4,5,5,6,6],"right_children":[2,4,6,8,10,12,14,-1,-1,-1,-1,-1,-1,-1,-1],"split_conditions":[4.4E-1,-2.4E0,1.2E1,-4.9E0,5E0,9E0,-1.7E0,-6.9349713E-4,2.590748E-3,1.4282755E-3,-2.444463E-3,2.239432E-3,-2.3178737E-4,4.887403E-3,2.8573622E-3],"split_indices":[3,77,80,25,53,51,77,0,0,0,0,0,0,0,0],"split_type":[0,0,0,0,0,0,0,0,0,0,0,0,0,0,0],"sum_hessian":[6.603084E3,2.2221733E3,4.3809106E3,6.5064874E2,1.5715245E3,2.0425583E3,2.3383523E3,3.1335416E2,3.3729462E2,1.4922829E2,1.4222963E3,9.1415594E2,1.1284023E3,1.2834381E3,1.0549141E3],"tree_param":{"num_deleted":"0","num_feature":"106","num_nodes":"15","size_leaf_vector":"1"}},{"base_weights":[-1.2710434E-1,-3.0473888E-1,4.244024E-2,-1.6343816E-1,-4.4978064E-1,-1.702142E-1,1.578097E-1,-2.4179213E-3,2.8139557E-4,-3.6670635E-3,-5.770096E-3,5.954113E-4,-2.9745963E-3,5.338928E-4,2.9730874E-3],"categories":[],"categories_nodes":[],"categories_segments":[],"categories_sizes":[],"default_left":[0,0,0,0,0,0,0,0,0,0,0,0,0,0,0],"id":38,"left_children":[1,3,5,7,9,11,13,-1,-1,-1,-1,-1,-1,-1,-1],"loss_changes":[1.9884753E2,6.600568E1,8.2922676E1,2.454588E1,1.6598999E1,3.4774223E1,3.1899189E1,0E0,0E0,0E0,0E0,0E0,0E0,0E0,0E0],"parents":[2147483647,0,0,1,1,2,2,3,3,4,4,5,5,6,6],"right_children":[2,4,6,8,10,12,14,-1,-1,-1,-1,-1,-1,-1,-1],"split_conditions":[1.5E1,1.3E1,-1.4E0,6E0,2.3E1,-4.6E0,2.4E1,-2.4179213E-3,2.8139557E-4,-3.6670635E-3,-5.770096E-3,5.954113E-4,-2.9745963E-3,5.338928E-4,2.9730874E-3],"split_indices":[51,80,77,77,80,25,51,0,0,0,0,0,0,0,0],"split_type":[0,0,0,0,0,0,0,0,0,0,0,0,0,0,0],"sum_hessian":[6.601077E3,3.22324E3,3.377837E3,1.6337529E3,1.589487E3,1.1878536E3,2.1899832E3,1.159332E3,4.7442096E2,9.639546E2,6.255325E2,4.2357513E2,7.642785E2,1.2532556E3,9.367276E2],"tree_param":{"num_deleted":"0","num_feature":"106","num_nodes":"15","size_leaf_vector":"1"}},{"base_weights":[1.2710431E-1,3.0473885E-1,-4.244028E-2,1.6343816E-1,4.497806E-1,1.7021418E-1,-1.5780976E-1,2.417921E-3,-2.8139536E-4,3.667064E-3,5.7700956E-3,-5.9541164E-4,2.9745959E-3,-5.338933E-4,-2.973088E-3],"categories":[],"categories_nodes":[],"categories_segments":[],"categories_sizes":[],"default_left":[0,0,0,0,0,0,0,0,0,0,0,0,0,0,0],"id":39,"left_children":[1,3,5,7,9,11,13,-1,-1,-1,-1,-1,-1,-1,-1],"loss_changes":[1.988475E2,6.600568E1,8.292269E1,2.454588E1,1.6598969E1,3.477422E1,3.1899193E1,0E0,0E0,0E0,0E0,0E0,0E0,0E0,0E0],"parents":[2147483647,0,0,1,1,2,2,3,3,4,4,5,5,6,6],"right_children":[2,4,6,8,10,12,14,-1,-1,-1,-1,-1,-1,-1,-1],"split_conditions":[1.5E1,1.3E1,-1.4E0,6E0,2.3E1,-4.6E0,2.4E1,2.417921E-3,-2.8139536E-4,3.667064E-3,5.7700956E-3,-5.9541164E-4,2.9745959E-3,-5.338933E-4,-2.973088E-3],"split_indices":[51,80,77,77,80,25,51,0,0,0,0,0,0,0,0],"split_type":[0,0,0,0,0,0,0,0,0,0,0,0,0,0,0],"sum_hessian":[6.6010767E3,3.22324E3,3.377837E3,1.633753E3,1.589487E3,1.1878536E3,2.1899832E3,1.159332E3,4.7442096E2,9.6395465E2,6.255325E2,4.2357516E2,7.642785E2,1.2532556E3,9.3672754E2],"tree_param":{"num_deleted":"0","num_feature":"106","num_nodes":"15","size_leaf_vector":"1"}},{"base_weights":[-1.2587425E-1,-2.3852764E-1,1.3650373E-1,-9.847021E-2,-3.973507E-1,-5.3397558E-5,2.8704002E-1,-2.3748325E-3,1.6433053E-4,-3.1340157E-3,-5.12531E-3,1.4925075E-3,-1.7107561E-3,4.2521064E-3,2.006042E-3],"categories":[],"categories_nodes":[],"categories_segments":[],"categories_sizes":[],"default_left":[0,0,0,0,0,0,0,0,0,0,0,0,0,0,0],"id":40,"left_children":[1,3,5,7,9,11,13,-1,-1,-1,-1,-1,-1,-1,-1],"loss_changes":[1.9511497E2,1.0268207E2,4.0767887E1,3.9221375E1,2.0760132E1,2.6603527E1,1.1180527E1,0E0,0E0,0E0,0E0,0E0,0E0,0E0,0E0],"parents":[2147483647,0,0,1,1,2,2,3,3,4,4,5,5,6,6],"right_children":[2,4,6,8,10,12,14,-1,-1,-1,-1,-1,-1,-1,-1],"split_conditions":[2E1,1.4E1,5.14E-1,9E0,2.3E1,-4.6E0,-6.1E0,-2.3748325E-3,1.6433053E-4,-3.1340157E-3,-5.12531E-3,1.4925075E-3,-1.7107561E-3,4.2521064E-3,2.006042E-3],"split_indices":[28,80,55,29,80,25,25,0,0,0,0,0,0,0,0],"split_type":[0,0,0,0,0,0,0,0,0,0,0,0,0,0,0],"sum_hessian":[6.5990386E3,4.616857E3,1.9821814E3,2.4542273E3,2.16263E3,1.039873E3,9.423083E2,1.1101145E3,1.3441128E3,1.2530591E3,9.0957074E2,5.552561E2,4.8461697E2,3.611223E2,5.81186E2],"tree_param":{"num_deleted":"0","num_feature":"106","num_nodes":"15","size_leaf_vector":"1"}},{"base_weights":[1.2587425E-1,2.3852764E-1,-1.3650371E-1,9.847023E-2,3.9735067E-1,5.341677E-5,-2.8704E-1,2.3748325E-3,-1.6433035E-4,3.1340157E-3,5.1253093E-3,-1.4925075E-3,1.7107566E-3,-4.252107E-3,-2.0060418E-3],"categories":[],"categories_nodes":[],"categories_segments":[],"categories_sizes":[],"default_left":[0,0,0,0,0,0,0,0,0,0,0,0,0,0,0],"id":41,"left_children":[1,3,5,7,9,11,13,-1,-1,-1,-1,-1,-1,-1,-1],"loss_changes":[1.9511496E2,1.0268204E2,4.0767887E1,3.9221375E1,2.0760162E1,2.6603535E1,1.1180534E1,0E0,0E0,0E0,0E0,0E0,0E0,0E0,0E0],"parents":[2147483647,0,0,1,1,2,2,3,3,4,4,5,5,6,6],"right_children":[2,4,6,8,10,12,14,-1,-1,-1,-1,-1,-1,-1,-1],"split_conditions":[2E1,1.4E1,5.14E-1,9E0,2.3E1,-4.6E0,-6.1E0,2.3748325E-3,-1.6433035E-4,3.1340157E-3,5.1253093E-3,-1.4925075E-3,1.7107566E-3,-4.252107E-3,-2.0060418E-3],"split_indices":[28,80,55,29,80,25,25,0,0,0,0,0,0,0,0],"split_type":[0,0,0,0,0,0,0,0,0,0,0,0,0,0,0],"sum_hessian":[6.5990386E3,4.616857E3,1.9821814E3,2.4542273E3,2.16263E3,1.039873E3,9.4230835E2,1.1101145E3,1.3441129E3,1.2530591E3,9.095707E2,5.552561E2,4.8461697E2,3.6112234E2,5.8118604E2],"tree_param":{"num_deleted":"0","num_feature":"106","num_nodes":"15","size_leaf_vector":"1"}},{"base_weights":[-1.2465812E-1,-2.9938537E-1,4.2034004E-2,-1.6043283E-1,-4.422034E-1,-1.8353556E-1,1.472054E-1,-2.380153E-3,2.9219047E-4,-3.6044824E-3,-5.676025E-3,4.7521282E-4,-3.1243882E-3,4.7107978E-4,2.7977084E-3],"categories":[],"categories_nodes":[],"categories_segments":[],"categories_sizes":[],"default_left":[0,0,0,0,0,0,0,0,0,0,0,0,0,0,0],"id":42,"left_children":[1,3,5,7,9,11,13,-1,-1,-1,-1,-1,-1,-1,-1],"loss_changes":[1.9217908E2,6.3857635E1,8.015152E1,2.4054516E1,1.607602E1,3.201556E1,3.0559788E1,0E0,0E0,0E0,0E0,0E0,0E0,0E0,0E0],"parents":[2147483647,0,0,1,1,2,2,3,3,4,4,5,5,6,6],"right_children":[2,4,6,8,10,12,14,-1,-1,-1,-1,-1,-1,-1,-1],"split_conditions":[1.5E1,1.3E1,-1.9E0,6E0,2.3E1,-4.6E0,2.4E1,-2.380153E-3,2.9219047E-4,-3.6044824E-3,-5.676025E-3,4.7521282E-4,-3.1243882E-3,4.7107978E-4,2.7977084E-3],"split_indices":[51,80,77,77,80,25,51,0,0,0,0,0,0,0,0],"split_type":[0,0,0,0,0,0,0,0,0,0,0,0,0,0,0],"sum_hessian":[6.5968433E3,3.2204065E3,3.3764368E3,1.6333693E3,1.5870372E3,1.0734268E3,2.30301E3,1.1589946E3,4.7437466E2,9.6304504E2,6.239922E2,3.8462482E2,6.8880194E2,1.3129696E3,9.9004047E2],"tree_param":{"num_deleted":"0","num_feature":"106","num_nodes":"15","size_leaf_vector":"1"}},{"base_weights":[1.2465814E-1,2.993854E-1,-4.2034004E-2,1.6043282E-1,4.4220346E-1,1.8353559E-1,-1.4720541E-1,2.3801527E-3,-2.9219006E-4,3.6044833E-3,5.676025E-3,-4.7521215E-4,3.1243882E-3,-4.7107978E-4,-2.797709E-3],"categories":[],"categories_nodes":[],"categories_segments":[],"categories_sizes":[],"default_left":[0,0,0,0,0,0,0,0,0,0,0,0,0,0,0],"id":43,"left_children":[1,3,5,7,9,11,13,-1,-1,-1,-1,-1,-1,-1,-1],"loss_changes":[1.9217912E2,6.3857666E1,8.015155E1,2.4054504E1,1.6075989E1,3.201554E1,3.0559807E1,0E0,0E0,0E0,0E0,0E0,0E0,0E0,0E0],"parents":[2147483647,0,0,1,1,2,2,3,3,4,4,5,5,6,6],"right_children":[2,4,6,8,10,12,14,-1,-1,-1,-1,-1,-1,-1,-1],"split_conditions":[1.5E1,1.3E1,-1.9E0,6E0,2.3E1,-4.6E0,2.4E1,2.3801527E-3,-2.9219006E-4,3.6044833E-3,5.676025E-3,-4.7521215E-4,3.1243882E-3,-4.7107978E-4,-2.797709E-3],"split_indices":[51,80,77,77,80,25,51,0,0,0,0,0,0,0,0],"split_type":[0,0,0,0,0,0,0,0,0,0,0,0,0,0,0],"sum_hessian":[6.5968433E3,3.2204065E3,3.376437E3,1.6333693E3,1.5870372E3,1.0734268E3,2.30301E3,1.1589946E3,4.7437463E2,9.6304504E2,6.2399225E2,3.8462485E2,6.8880194E2,1.3129696E3,9.9004047E2],"tree_param":{"num_deleted":"0","num_feature":"106","num_nodes":"15","size_leaf_vector":"1"}},{"base_weights":[-1.234548E-1,-2.9654145E-1,4.1621428E-2,-1.5884823E-1,-4.3817282E-1,-1.6952516E-1,1.5180716E-1,-2.356772E-3,2.892701E-4,-3.570442E-3,-5.627149E-3,5.357628E-4,-2.9369362E-3,5.2049186E-4,2.8460547E-3],"categories":[],"categories_nodes":[],"categories_segments":[],"categories_sizes":[],"default_left":[0,0,0,0,0,0,0,0,0,0,0,0,0,0,0],"id":44,"left_children":[1,3,5,7,9,11,13,-1,-1,-1,-1,-1,-1,-1,-1],"loss_changes":[1.8846646E2,6.2722443E1,7.858861E1,2.3582455E1,1.5830475E1,3.2105736E1,2.9387466E1,0E0,0E0,0E0,0E0,0E0,0E0,0E0,0E0],"parents":[2147483647,0,0,1,1,2,2,3,3,4,4,5,5,6,6],"right_children":[2,4,6,8,10,12,14,-1,-1,-1,-1,-1,-1,-1,-1],"split_conditions":[1.5E1,1.3E1,-1.5E0,6E0,2.3E1,-4.6E0,2.4E1,-2.356772E-3,2.892701E-4,-3.570442E-3,-5.627149E-3,5.357628E-4,-2.9369362E-3,5.2049186E-4,2.8460547E-3],"split_indices":[51,80,77,77,80,25,51,0,0,0,0,0,0,0,0],"split_type":[0,0,0,0,0,0,0,0,0,0,0,0,0,0,0],"sum_hessian":[6.594649E3,3.2188284E3,3.3758203E3,1.6331808E3,1.5856476E3,1.1573933E3,2.218427E3,1.1587987E3,4.743821E2,9.6251654E2,6.2313104E2,4.140363E2,7.4335706E2,1.2675995E3,9.508275E2],"tree_param":{"num_deleted":"0","num_feature":"106","num_nodes":"15","size_leaf_vector":"1"}},{"base_weights":[1.23454794E-1,2.9654142E-1,-4.1621428E-2,1.5884823E-1,4.381728E-1,1.6952513E-1,-1.5180714E-1,2.3567718E-3,-2.8927007E-4,3.570442E-3,5.627148E-3,-5.357636E-4,2.9369362E-3,-5.204918E-4,-2.8460547E-3],"categories":[],"categories_nodes":[],"categories_segments":[],"categories_sizes":[],"default_left":[0,0,0,0,0,0,0,0,0,0,0,0,0,0,0],"id":45,"left_children":[1,3,5,7,9,11,13,-1,-1,-1,-1,-1,-1,-1,-1],"loss_changes":[1.8846646E2,6.2722473E1,7.858859E1,2.3582462E1,1.5830414E1,3.210575E1,2.9387466E1,0E0,0E0,0E0,0E0,0E0,0E0,0E0,0E0],"parents":[2147483647,0,0,1,1,2,2,3,3,4,4,5,5,6,6],"right_children":[2,4,6,8,10,12,14,-1,-1,-1,-1,-1,-1,-1,-1],"split_conditions":[1.5E1,1.3E1,-1.5E0,6E0,2.3E1,-4.6E0,2.4E1,2.3567718E-3,-2.8927007E-4,3.570442E-3,5.627148E-3,-5.357636E-4,2.9369362E-3,-5.204918E-4,-2.8460547E-3],"split_indices":[51,80,77,77,80,25,51,0,0,0,0,0,0,0,0],"split_type":[0,0,0,0,0,0,0,0,0,0,0,0,0,0,0],"sum_hessian":[6.594649E3,3.2188284E3,3.3758203E3,1.6331808E3,1.5856476E3,1.1573933E3,2.218427E3,1.1587986E3,4.743821E2,9.625166E2,6.2313104E2,4.140363E2,7.4335706E2,1.2675995E3,9.508275E2],"tree_param":{"num_deleted":"0","num_feature":"106","num_nodes":"15","size_leaf_vector":"1"}},{"base_weights":[-1.22264564E-1,9.526841E-2,-2.5139508E-1,-3.5938416E-2,2.4530791E-1,-3.516159E-1,-3.68828E-2,1.3553752E-3,-1.7721619E-3,1.8959536E-3,4.1063754E-3,-4.603737E-3,-2.535005E-3,8.722574E-4,-1.6377964E-3],"categories":[],"categories_nodes":[],"categories_segments":[],"categories_sizes":[],"default_left":[0,0,0,0,0,0,0,0,0,0,0,0,0,0,0],"id":46,"left_children":[1,3,5,7,9,11,13,-1,-1,-1,-1,-1,-1,-1,-1],"loss_changes":[1.8523273E2,4.837242E1,8.8940674E1,3.1795784E1,1.0480057E1,2.99747E1,2.0782042E1,0E0,0E0,0E0,0E0,0E0,0E0,0E0,0E0],"parents":[2147483647,0,0,1,1,2,2,3,3,4,4,5,5,6,6],"right_children":[2,4,6,8,10,12,14,-1,-1,-1,-1,-1,-1,-1,-1],"split_conditions":[4.59E-1,5.19E-1,3E0,-4.9E0,2.8E1,-1.4E0,3.1E0,1.3553752E-3,-1.7721619E-3,1.8959536E-3,4.1063754E-3,-4.603737E-3,-2.535005E-3,8.722574E-4,-1.6377964E-3],"split_indices":[3,55,77,25,51,77,25,0,0,0,0,0,0,0,0],"split_type":[0,0,0,0,0,0,0,0,0,0,0,0,0,0,0],"sum_hessian":[6.592372E3,2.4557253E3,4.136647E3,1.3104878E3,1.1452374E3,2.8189739E3,1.3176729E3,5.9199475E2,7.1849304E2,8.5819196E2,2.870455E2,1.3352261E3,1.4837478E3,6.663132E2,6.513596E2],"tree_param":{"num_deleted":"0","num_feature":"106","num_nodes":"15","size_leaf_vector":"1"}},{"base_weights":[1.2226459E-1,-9.526839E-2,2.513951E-1,3.5938445E-2,-2.4530788E-1,3.5161597E-1,3.6882803E-2,-1.3553747E-3,1.7721622E-3,-1.8959532E-3,-4.1063754E-3,4.603737E-3,2.5350058E-3,-8.7225693E-4,1.6377962E-3],"categories":[],"categories_nodes":[],"categories_segments":[],"categories_sizes":[],"default_left":[0,0,0,0,0,0,0,0,0,0,0,0,0,0,0],"id":47,"left_children":[1,3,5,7,9,11,13,-1,-1,-1,-1,-1,-1,-1,-1],"loss_changes":[1.8523271E2,4.8372414E1,8.8940704E1,3.1795778E1,1.0480072E1,2.9974731E1,2.078203E1,0E0,0E0,0E0,0E0,0E0,0E0,0E0,0E0],"parents":[2147483647,0,0,1,1,2,2,3,3,4,4,5,5,6,6],"right_children":[2,4,6,8,10,12,14,-1,-1,-1,-1,-1,-1,-1,-1],"split_conditions":[4.59E-1,5.19E-1,3E0,-4.9E0,2.8E1,-1.4E0,3.1E0,-1.3553747E-3,1.7721622E-3,-1.8959532E-3,-4.1063754E-3,4.603737E-3,2.5350058E-3,-8.7225693E-4,1.6377962E-3],"split_indices":[3,55,77,25,51,77,25,0,0,0,0,0,0,0,0],"split_type":[0,0,0,0,0,0,0,0,0,0,0,0,0,0,0],"sum_hessian":[6.592372E3,2.4557253E3,4.136647E3,1.3104878E3,1.1452375E3,2.8189739E3,1.3176729E3,5.9199475E2,7.1849304E2,8.5819196E2,2.8704553E2,1.3352261E3,1.4837478E3,6.6631323E2,6.513596E2],"tree_param":{"num_deleted":"0","num_feature":"106","num_nodes":"15","size_leaf_vector":"1"}},{"base_weights":[-1.2108649E-1,-2.9132298E-1,4.1185502E-2,-1.5590137E-1,-4.308185E-1,-1.7867796E-1,1.436449E-1,-2.3171664E-3,2.934374E-4,-3.5062288E-3,-5.541152E-3,4.5499246E-4,-3.0390427E-3,4.6423124E-4,2.725067E-3],"categories":[],"categories_nodes":[],"categories_segments":[],"categories_sizes":[],"default_left":[0,0,0,0,0,0,0,0,0,0,0,0,0,0,0],"id":48,"left_children":[1,3,5,7,9,11,13,-1,-1,-1,-1,-1,-1,-1,-1],"loss_changes":[1.8208559E2,6.0698242E1,7.60615E1,2.295174E1,1.5467529E1,3.0146759E1,2.8838799E1,0E0,0E0,0E0,0E0,0E0,0E0,0E0,0E0],"parents":[2147483647,0,0,1,1,2,2,3,3,4,4,5,5,6,6],"right_children":[2,4,6,8,10,12,14,-1,-1,-1,-1,-1,-1,-1,-1],"split_conditions":[1.5E1,1.3E1,-1.9E0,6E0,2.3E1,-4.6E0,2.4E1,-2.3171664E-3,2.934374E-4,-3.5062288E-3,-5.541152E-3,4.5499246E-4,-3.0390427E-3,4.6423124E-4,2.725067E-3],"split_indices":[51,80,77,77,80,25,51,0,0,0,0,0,0,0,0],"split_type":[0,0,0,0,0,0,0,0,0,0,0,0,0,0,0],"sum_hessian":[6.589991E3,3.215683E3,3.3743079E3,1.6327421E3,1.582941E3,1.0723823E3,2.3019255E3,1.158395E3,4.7434714E2,9.6143835E2,6.215026E2,3.8457025E2,6.878121E2,1.3128135E3,9.891122E2],"tree_param":{"num_deleted":"0","num_feature":"106","num_nodes":"15","size_leaf_vector":"1"}},{"base_weights":[1.2108649E-1,2.9132298E-1,-4.11855E-2,1.5590137E-1,4.308185E-1,1.7867796E-1,-1.436449E-1,2.3171662E-3,-2.934376E-4,3.5062293E-3,5.541152E-3,-4.5499264E-4,3.0390427E-3,-4.642314E-4,-2.7250664E-3],"categories":[],"categories_nodes":[],"categories_segments":[],"categories_sizes":[],"default_left":[0,0,0,0,0,0,0,0,0,0,0,0,0,0,0],"id":49,"left_children":[1,3,5,7,9,11,13,-1,-1,-1,-1,-1,-1,-1,-1],"loss_changes":[1.8208559E2,6.0698273E1,7.60615E1,2.295174E1,1.5467499E1,3.0146767E1,2.8838795E1,0E0,0E0,0E0,0E0,0E0,0E0,0E0,0E0],"parents":[2147483647,0,0,1,1,2,2,3,3,4,4,5,5,6,6],"right_children":[2,4,6,8,10,12,14,-1,-1,-1,-1,-1,-1,-1,-1],"split_conditions":[1.5E1,1.3E1,-1.9E0,6E0,2.3E1,-4.6E0,2.4E1,2.3171662E-3,-2.934376E-4,3.5062293E-3,5.541152E-3,-4.5499264E-4,3.0390427E-3,-4.642314E-4,-2.7250664E-3],"split_indices":[51,80,77,77,80,25,51,0,0,0,0,0,0,0,0],"split_type":[0,0,0,0,0,0,0,0,0,0,0,0,0,0,0],"sum_hessian":[6.589991E3,3.215683E3,3.374308E3,1.6327421E3,1.582941E3,1.0723823E3,2.3019255E3,1.158395E3,4.7434714E2,9.6143835E2,6.215026E2,3.8457028E2,6.878121E2,1.3128135E3,9.891122E2],"tree_param":{"num_deleted":"0","num_feature":"106","num_nodes":"15","size_leaf_vector":"1"}},{"base_weights":[-1.1992187E-1,-2.2797954E-1,1.3151439E-1,-9.364577E-2,-3.8078916E-1,-1.3648689E-1,2.027078E-1,-2.2856316E-3,1.779126E-4,-2.9986356E-3,-4.9220254E-3,-2.334064E-3,9.167278E-4,3.3841454E-3,1.036214E-3],"categories":[],"categories_nodes":[],"categories_segments":[],"categories_sizes":[],"default_left":[0,0,0,0,0,0,0,0,0,0,0,0,0,0,0],"id":50,"left_children":[1,3,5,7,9,11,13,-1,-1,-1,-1,-1,-1,-1,-1],"loss_changes":[1.790389E2,9.456578E1,3.7825848E1,3.6897247E1,1.928836E1,9.2292595E0,2.1017708E1,0E0,0E0,0E0,0E0,0E0,0E0,0E0,0E0],"parents":[2147483647,0,0,1,1,2,2,3,3,4,4,5,5,6,6],"right_children":[2,4,6,8,10,12,14,-1,-1,-1,-1,-1,-1,-1,-1],"split_conditions":[2E1,1.4E1,3.6E-1,9E0,2.3E1,2.7E1,-5.9E0,-2.2856316E-3,1.779126E-4,-2.9986356E-3,-4.9220254E-3,-2.334064E-3,9.167278E-4,3.3841454E-3,1.036214E-3],"split_indices":[28,80,55,29,80,28,25,0,0,0,0,0,0,0,0],"split_type":[0,0,0,0,0,0,0,0,0,0,0,0,0,0,0],"sum_hessian":[6.58757E3,4.6075254E3,1.9800446E3,2.4528533E3,2.1546719E3,4.1539807E2,1.5646465E3,1.1090588E3,1.3437944E3,1.2502437E3,9.044283E2,2.915346E2,1.23863464E2,6.59286E2,9.053604E2],"tree_param":{"num_deleted":"0","num_feature":"106","num_nodes":"15","size_leaf_vector":"1"}},{"base_weights":[1.1992186E-1,2.2797951E-1,-1.3151437E-1,9.364577E-2,3.807891E-1,1.3648693E-1,-2.0270778E-1,2.2856311E-3,-1.7791224E-4,2.9986352E-3,4.922025E-3,2.3340646E-3,-9.167269E-4,-3.3841454E-3,-1.0362141E-3],"categories":[],"categories_nodes":[],"categories_segments":[],"categories_sizes":[],"default_left":[0,0,0,0,0,0,0,0,0,0,0,0,0,0,0],"id":51,"left_children":[1,3,5,7,9,11,13,-1,-1,-1,-1,-1,-1,-1,-1],"loss_changes":[1.7903886E2,9.456578E1,3.7825848E1,3.689722E1,1.928836E1,9.229259E0,2.10177E1,0E0,0E0,0E0,0E0,0E0,0E0,0E0,0E0],"parents":[2147483647,0,0,1,1,2,2,3,3,4,4,5,5,6,6],"right_children":[2,4,6,8,10,12,14,-1,-1,-1,-1,-1,-1,-1,-1],"split_conditions":[2E1,1.4E1,3.6E-1,9E0,2.3E1,2.7E1,-5.9E0,2.2856311E-3,-1.7791224E-4,2.9986352E-3,4.922025E-3,2.3340646E-3,-9.167269E-4,-3.3841454E-3,-1.0362141E-3],"split_indices":[28,80,55,29,80,28,25,0,0,0,0,0,0,0,0],"split_type":[0,0,0,0,0,0,0,0,0,0,0,0,0,0,0],"sum_hessian":[6.58757E3,4.6075254E3,1.9800444E3,2.4528533E3,2.1546719E3,4.1539807E2,1.5646465E3,1.1090588E3,1.3437946E3,1.2502437E3,9.044283E2,2.915346E2,1.23863464E2,6.59286E2,9.053604E2],"tree_param":{"num_deleted":"0","num_feature":"106","num_nodes":"15","size_leaf_vector":"1"}},{"base_weights":[-1.18768714E-1,-2.8625578E-1,4.07903E-2,-1.5302974E-1,-4.237004E-1,-1.5957463E-1,1.4937553E-1,-2.2810702E-3,3.0362143E-4,-3.4473552E-3,-5.453227E-3,5.455224E-4,-2.7849127E-3,5.178558E-4,2.8000842E-3],"categories":[],"categories_nodes":[],"categories_segments":[],"categories_sizes":[],"default_left":[0,0,0,0,0,0,0,0,0,0,0,0,0,0,0],"id":52,"left_children":[1,3,5,7,9,11,13,-1,-1,-1,-1,-1,-1,-1,-1],"loss_changes":[1.7601917E2,5.877545E1,7.342552E1,2.2494858E1,1.4996399E1,3.0220749E1,2.7885674E1,0E0,0E0,0E0,0E0,0E0,0E0,0E0,0E0],"parents":[2147483647,0,0,1,1,2,2,3,3,4,4,5,5,6,6],"right_children":[2,4,6,8,10,12,14,-1,-1,-1,-1,-1,-1,-1,-1],"split_conditions":[1.5E1,1.3E1,-1.4E0,6E0,2.3E1,-4.6E0,2.4E1,-2.2810702E-3,3.0362143E-4,-3.4473552E-3,-5.453227E-3,5.455224E-4,-2.7849127E-3,5.178558E-4,2.8000842E-3],"split_indices":[51,80,77,77,80,25,51,0,0,0,0,0,0,0,0],"split_type":[0,0,0,0,0,0,0,0,0,0,0,0,0,0,0],"sum_hessian":[6.5851035E3,3.2123484E3,3.3727554E3,1.6322805E3,1.5800677E3,1.1852411E3,2.1875142E3,1.1579806E3,4.7429993E2,9.603697E2,6.196981E2,4.2339594E2,7.6184515E2,1.2529146E3,9.345997E2],"tree_param":{"num_deleted":"0","num_feature":"106","num_nodes":"15","size_leaf_vector":"1"}},{"base_weights":[1.1876871E-1,2.8625575E-1,-4.0790293E-2,1.5302972E-1,4.2370036E-1,1.5957464E-1,-1.4937553E-1,2.28107E-3,-3.0362172E-4,3.4473552E-3,5.4532266E-3,-5.455223E-4,2.7849127E-3,-5.178558E-4,-2.800084E-3],"categories":[],"categories_nodes":[],"categories_segments":[],"categories_sizes":[],"default_left":[0,0,0,0,0,0,0,0,0,0,0,0,0,0,0],"id":53,"left_children":[1,3,5,7,9,11,13,-1,-1,-1,-1,-1,-1,-1,-1],"loss_changes":[1.7601912E2,5.877545E1,7.342553E1,2.2494858E1,1.4996368E1,3.0220745E1,2.788567E1,0E0,0E0,0E0,0E0,0E0,0E0,0E0,0E0],"parents":[2147483647,0,0,1,1,2,2,3,3,4,4,5,5,6,6],"right_children":[2,4,6,8,10,12,14,-1,-1,-1,-1,-1,-1,-1,-1],"split_conditions":[1.5E1,1.3E1,-1.4E0,6E0,2.3E1,-4.6E0,2.4E1,2.28107E-3,-3.0362172E-4,3.4473552E-3,5.4532266E-3,-5.455223E-4,2.7849127E-3,-5.178558E-4,-2.800084E-3],"split_indices":[51,80,77,77,80,25,51,0,0,0,0,0,0,0,0],"split_type":[0,0,0,0,0,0,0,0,0,0,0,0,0,0,0],"sum_hessian":[6.5851035E3,3.2123484E3,3.3727554E3,1.6322805E3,1.5800677E3,1.1852411E3,2.1875142E3,1.1579806E3,4.7429993E2,9.603697E2,6.196981E2,4.2339597E2,7.618452E2,1.2529146E3,9.345997E2],"tree_param":{"num_deleted":"0","num_feature":"106","num_nodes":"15","size_leaf_vector":"1"}},{"base_weights":[-1.1762882E-1,-2.2382969E-1,1.2937719E-1,-9.181315E-2,-3.742156E-1,-5.5413705E-4,2.7274072E-1,-2.247976E-3,1.7985293E-4,-2.9453987E-3,-4.8408266E-3,1.4498755E-3,-1.552725E-3,4.0479354E-3,1.9035198E-3],"categories":[],"categories_nodes":[],"categories_segments":[],"categories_sizes":[],"default_left":[0,0,0,0,0,0,0,0,0,0,0,0,0,0,0],"id":54,"left_children":[1,3,5,7,9,11,13,-1,-1,-1,-1,-1,-1,-1,-1],"loss_changes":[1.7273016E2,9.137872E1,3.6885197E1,3.5825493E1,1.8696533E1,2.3435204E1,1.0165222E1,0E0,0E0,0E0,0E0,0E0,0E0,0E0,0E0],"parents":[2147483647,0,0,1,1,2,2,3,3,4,4,5,5,6,6],"right_children":[2,4,6,8,10,12,14,-1,-1,-1,-1,-1,-1,-1,-1],"split_conditions":[2E1,1.4E1,5.14E-1,9E0,2.3E1,-4.9E0,-6.1E0,-2.247976E-3,1.7985293E-4,-2.9453987E-3,-4.8408266E-3,1.4498755E-3,-1.552725E-3,4.0479354E-3,1.9035198E-3],"split_indices":[28,80,55,29,80,25,25,0,0,0,0,0,0,0,0],"split_type":[0,0,0,0,0,0,0,0,0,0,0,0,0,0,0],"sum_hessian":[6.582545E3,4.6033965E3,1.9791484E3,2.4522742E3,2.1511223E3,1.0387334E3,9.404149E2,1.108566E3,1.3437083E3,1.2490155E3,9.0210693E2,5.352722E2,5.034612E2,3.5980518E2,5.8060974E2],"tree_param":{"num_deleted":"0","num_feature":"106","num_nodes":"15","size_leaf_vector":"1"}},{"base_weights":[1.1762881E-1,2.2382967E-1,-1.293772E-1,9.181316E-2,3.742156E-1,5.5415434E-4,-2.7274078E-1,2.2479764E-3,-1.798529E-4,2.9453982E-3,4.840826E-3,-1.4498753E-3,1.5527251E-3,-4.047936E-3,-1.9035204E-3],"categories":[],"categories_nodes":[],"categories_segments":[],"categories_sizes":[],"default_left":[0,0,0,0,0,0,0,0,0,0,0,0,0,0,0],"id":55,"left_children":[1,3,5,7,9,11,13,-1,-1,-1,-1,-1,-1,-1,-1],"loss_changes":[1.727302E2,9.137869E1,3.688521E1,3.582551E1,1.8696533E1,2.3435202E1,1.0165222E1,0E0,0E0,0E0,0E0,0E0,0E0,0E0,0E0],"parents":[2147483647,0,0,1,1,2,2,3,3,4,4,5,5,6,6],"right_children":[2,4,6,8,10,12,14,-1,-1,-1,-1,-1,-1,-1,-1],"split_conditions":[2E1,1.4E1,5.14E-1,9E0,2.3E1,-4.9E0,-6.1E0,2.2479764E-3,-1.798529E-4,2.9453982E-3,4.840826E-3,-1.4498753E-3,1.5527251E-3,-4.047936E-3,-1.9035204E-3],"split_indices":[28,80,55,29,80,25,25,0,0,0,0,0,0,0,0],"split_type":[0,0,0,0,0,0,0,0,0,0,0,0,0,0,0],"sum_hessian":[6.582545E3,4.6033965E3,1.9791483E3,2.4522744E3,2.1511223E3,1.0387334E3,9.404149E2,1.108566E3,1.3437083E3,1.2490155E3,9.021069E2,5.352722E2,5.034612E2,3.5980515E2,5.8060974E2],"tree_param":{"num_deleted":"0","num_feature":"106","num_nodes":"15","size_leaf_vector":"1"}},{"base_weights":[-1.1650084E-1,-2.8128746E-1,4.0393144E-2,-1.5022072E-1,-4.1672304E-1,-1.7221668E-1,1.3939808E-1,-2.2456932E-3,3.133781E-4,-3.3893322E-3,-5.367624E-3,4.3417982E-4,-2.9290686E-3,4.6076474E-4,2.632382E-3],"categories":[],"categories_nodes":[],"categories_segments":[],"categories_sizes":[],"default_left":[0,0,0,0,0,0,0,0,0,0,0,0,0,0,0],"id":56,"left_children":[1,3,5,7,9,11,13,-1,-1,-1,-1,-1,-1,-1,-1],"loss_changes":[1.7015361E2,5.691548E1,7.100365E1,2.2047455E1,1.4553558E1,2.7906298E1,2.6583298E1,0E0,0E0,0E0,0E0,0E0,0E0,0E0,0E0],"parents":[2147483647,0,0,1,1,2,2,3,3,4,4,5,5,6,6],"right_children":[2,4,6,8,10,12,14,-1,-1,-1,-1,-1,-1,-1,-1],"split_conditions":[1.5E1,1.3E1,-1.9E0,6E0,2.3E1,-4.6E0,2.4E1,-2.2456932E-3,3.133781E-4,-3.3893322E-3,-5.367624E-3,4.3417982E-4,-2.9290686E-3,4.6076474E-4,2.632382E-3],"split_indices":[51,80,77,77,80,25,51,0,0,0,0,0,0,0,0],"split_type":[0,0,0,0,0,0,0,0,0,0,0,0,0,0,0],"sum_hessian":[6.5798794E3,3.208832E3,3.371047E3,1.6317896E3,1.5770425E3,1.0707999E3,2.300247E3,1.1575382E3,4.7425134E2,9.5924243E2,6.178001E2,3.8448642E2,6.863136E2,1.3125371E3,9.8771E2],"tree_param":{"num_deleted":"0","num_feature":"106","num_nodes":"15","size_leaf_vector":"1"}},{"base_weights":[1.1650085E-1,2.8128746E-1,-4.0393136E-2,1.5022074E-1,4.1672307E-1,1.7221667E-1,-1.3939807E-1,2.2456935E-3,-3.1337823E-4,3.3893324E-3,5.367624E-3,-4.3418E-4,2.9290686E-3,-4.6076454E-4,-2.632382E-3],"categories":[],"categories_nodes":[],"categories_segments":[],"categories_sizes":[],"default_left":[0,0,0,0,0,0,0,0,0,0,0,0,0,0,0],"id":57,"left_children":[1,3,5,7,9,11,13,-1,-1,-1,-1,-1,-1,-1,-1],"loss_changes":[1.7015363E2,5.691548E1,7.100363E1,2.2047462E1,1.4553558E1,2.7906305E1,2.6583294E1,0E0,0E0,0E0,0E0,0E0,0E0,0E0,0E0],"parents":[2147483647,0,0,1,1,2,2,3,3,4,4,5,5,6,6],"right_children":[2,4,6,8,10,12,14,-1,-1,-1,-1,-1,-1,-1,-1],"split_conditions":[1.5E1,1.3E1,-1.9E0,6E0,2.3E1,-4.6E0,2.4E1,2.2456935E-3,-3.1337823E-4,3.3893324E-3,5.367624E-3,-4.3418E-4,2.9290686E-3,-4.6076454E-4,-2.632382E-3],"split_indices":[51,80,77,77,80,25,51,0,0,0,0,0,0,0,0],"split_type":[0,0,0,0,0,0,0,0,0,0,0,0,0,0,0],"sum_hessian":[6.5798794E3,3.208832E3,3.371047E3,1.6317896E3,1.5770425E3,1.0708E3,2.300247E3,1.1575382E3,4.7425134E2,9.5924243E2,6.178001E2,3.8448642E2,6.863136E2,1.3125371E3,9.8770996E2],"tree_param":{"num_deleted":"0","num_feature":"106","num_nodes":"15","size_leaf_vector":"1"}},{"base_weights":[-1.15385E-1,-2.786468E-1,3.9998252E-2,-1.487424E-1,-4.1300443E-1,-1.7055817E-1,1.3802764E-1,-2.223749E-3,3.102451E-4,-3.35773E-3,-5.3230394E-3,4.2985863E-4,-2.9014081E-3,4.5615973E-4,2.6070618E-3],"categories":[],"categories_nodes":[],"categories_segments":[],"categories_sizes":[],"default_left":[0,0,0,0,0,0,0,0,0,0,0,0,0,0,0],"id":58,"left_children":[1,3,5,7,9,11,13,-1,-1,-1,-1,-1,-1,-1,-1],"loss_changes":[1.668879E2,5.592816E1,6.960954E1,2.1616364E1,1.4345306E1,2.7372364E1,2.6073013E1,0E0,0E0,0E0,0E0,0E0,0E0,0E0,0E0],"parents":[2147483647,0,0,1,1,2,2,3,3,4,4,5,5,6,6],"right_children":[2,4,6,8,10,12,14,-1,-1,-1,-1,-1,-1,-1,-1],"split_conditions":[1.5E1,1.3E1,-1.9E0,6E0,2.3E1,-4.6E0,2.4E1,-2.223749E-3,3.102451E-4,-3.35773E-3,-5.3230394E-3,4.2985863E-4,-2.9014081E-3,4.5615973E-4,2.6070618E-3],"split_indices":[51,80,77,77,80,25,51,0,0,0,0,0,0,0,0],"split_type":[0,0,0,0,0,0,0,0,0,0,0,0,0,0,0],"sum_hessian":[6.577199E3,3.2069016E3,3.3702976E3,1.6315427E3,1.575359E3,1.0704176E3,2.29988E3,1.1572827E3,4.7425998E2,9.5860046E2,6.167586E2,3.844783E2,6.8593933E2,1.3125386E3,9.873414E2],"tree_param":{"num_deleted":"0","num_feature":"106","num_nodes":"15","size_leaf_vector":"1"}},{"base_weights":[1.1538499E-1,2.7864677E-1,-3.9998256E-2,1.4874236E-1,4.130044E-1,1.7055818E-1,-1.3802765E-1,2.2237487E-3,-3.1024517E-4,3.3577299E-3,5.3230394E-3,-4.298585E-4,2.9014084E-3,-4.5615996E-4,-2.6070615E-3],"categories":[],"categories_nodes":[],"categories_segments":[],"categories_sizes":[],"default_left":[0,0,0,0,0,0,0,0,0,0,0,0,0,0,0],"id":59,"left_children":[1,3,5,7,9,11,13,-1,-1,-1,-1,-1,-1,-1,-1],"loss_changes":[1.6688785E2,5.5928177E1,6.960956E1,2.1616352E1,1.4345306E1,2.7372368E1,2.6073013E1,0E0,0E0,0E0,0E0,0E0,0E0,0E0,0E0],"parents":[2147483647,0,0,1,1,2,2,3,3,4,4,5,5,6,6],"right_children":[2,4,6,8,10,12,14,-1,-1,-1,-1,-1,-1,-1,-1],"split_conditions":[1.5E1,1.3E1,-1.9E0,6E0,2.3E1,-4.6E0,2.4E1,2.2237487E-3,-3.1024517E-4,3.3577299E-3,5.3230394E-3,-4.298585E-4,2.9014084E-3,-4.5615996E-4,-2.6070615E-3],"split_indices":[51,80,77,77,80,25,51,0,0,0,0,0,0,0,0],"split_type":[0,0,0,0,0,0,0,0,0,0,0,0,0,0,0],"sum_hessian":[6.577199E3,3.2069019E3,3.3702976E3,1.6315427E3,1.575359E3,1.0704176E3,2.29988E3,1.1572827E3,4.7425998E2,9.586004E2,6.167586E2,3.8447827E2,6.8593933E2,1.3125386E3,9.873414E2],"tree_param":{"num_deleted":"0","num_feature":"106","num_nodes":"15","size_leaf_vector":"1"}},{"base_weights":[-1.1428101E-1,9.051231E-2,-2.3607431E-1,-3.409416E-2,2.3308869E-1,-3.3201668E-1,-3.1550847E-2,1.2642408E-3,-1.6641165E-3,1.8013192E-3,3.9069024E-3,-4.350917E-3,-2.3949568E-3,-1.608291E-3,8.216286E-4],"categories":[],"categories_nodes":[],"categories_segments":[],"categories_sizes":[],"default_left":[0,0,0,0,0,0,0,0,0,0,0,0,0,0,0],"id":60,"left_children":[1,3,5,7,9,11,13,-1,-1,-1,-1,-1,-1,-1,-1],"loss_changes":[1.6402933E2,4.3585903E1,8.090396E1,2.7840504E1,9.47826E0,2.666269E1,1.938592E1,0E0,0E0,0E0,0E0,0E0,0E0,0E0,0E0],"parents":[2147483647,0,0,1,1,2,2,3,3,4,4,5,5,6,6],"right_children":[2,4,6,8,10,12,14,-1,-1,-1,-1,-1,-1,-1,-1],"split_conditions":[4.59E-1,5.19E-1,3E0,-4.9E0,2.8E1,-1.4E0,9E0,1.2642408E-3,-1.6641165E-3,1.8013192E-3,3.9069024E-3,-4.350917E-3,-2.3949568E-3,-1.608291E-3,8.216286E-4],"split_indices":[3,55,77,25,51,77,51,0,0,0,0,0,0,0,0],"split_type":[0,0,0,0,0,0,0,0,0,0,0,0,0,0,0],"sum_hessian":[6.5744536E3,2.4518938E3,4.12256E3,1.3088063E3,1.1430874E3,2.8057524E3,1.3168075E3,5.914028E2,7.1740356E2,8.571977E2,2.858897E2,1.325428E3,1.4803243E3,6.160366E2,7.007709E2],"tree_param":{"num_deleted":"0","num_feature":"106","num_nodes":"15","size_leaf_vector":"1"}},{"base_weights":[1.1428102E-1,-9.0512305E-2,2.3607433E-1,3.4094173E-2,-2.3308869E-1,3.320167E-1,3.1550884E-2,-1.2642406E-3,1.6641165E-3,-1.8013194E-3,-3.9069024E-3,4.3509174E-3,2.3949568E-3,1.6082915E-3,-8.216285E-4],"categories":[],"categories_nodes":[],"categories_segments":[],"categories_sizes":[],"default_left":[0,0,0,0,0,0,0,0,0,0,0,0,0,0,0],"id":61,"left_children":[1,3,5,7,9,11,13,-1,-1,-1,-1,-1,-1,-1,-1],"loss_changes":[1.6402933E2,4.3585915E1,8.090393E1,2.7840494E1,9.478252E0,2.6662659E1,1.9385923E1,0E0,0E0,0E0,0E0,0E0,0E0,0E0,0E0],"parents":[2147483647,0,0,1,1,2,2,3,3,4,4,5,5,6,6],"right_children":[2,4,6,8,10,12,14,-1,-1,-1,-1,-1,-1,-1,-1],"split_conditions":[4.59E-1,5.19E-1,3E0,-4.9E0,2.8E1,-1.4E0,9E0,-1.2642406E-3,1.6641165E-3,-1.8013194E-3,-3.9069024E-3,4.3509174E-3,2.3949568E-3,1.6082915E-3,-8.216285E-4],"split_indices":[3,55,77,25,51,77,51,0,0,0,0,0,0,0,0],"split_type":[0,0,0,0,0,0,0,0,0,0,0,0,0,0,0],"sum_hessian":[6.5744536E3,2.4518938E3,4.12256E3,1.3088063E3,1.1430874E3,2.8057524E3,1.3168075E3,5.914028E2,7.1740356E2,8.571977E2,2.858897E2,1.3254281E3,1.4803243E3,6.160367E2,7.007709E2],"tree_param":{"num_deleted":"0","num_feature":"106","num_nodes":"15","size_leaf_vector":"1"}},{"base_weights":[-1.1318737E-1,-2.7380368E-1,3.9578587E-2,-1.3703029E-1,-3.975433E-1,-8.099153E-2,2.060084E-1,-2.1231864E-3,3.0247803E-4,-3.2391595E-3,-5.2445144E-3,-1.8453638E-3,1.4077767E-3,1.2999328E-3,3.115668E-3],"categories":[],"categories_nodes":[],"categories_segments":[],"categories_sizes":[],"default_left":[0,0,0,0,0,0,0,0,0,0,0,0,0,0,0],"id":62,"left_children":[1,3,5,7,9,11,13,-1,-1,-1,-1,-1,-1,-1,-1],"loss_changes":[1.6128198E2,5.417308E1,6.763106E1,1.919272E1,1.5543671E1,4.491156E1,1.1320213E1,0E0,0E0,0E0,0E0,0E0,0E0,0E0,0E0],"parents":[2147483647,0,0,1,1,2,2,3,3,4,4,5,5,6,6],"right_children":[2,4,6,8,10,12,14,-1,-1,-1,-1,-1,-1,-1,-1],"split_conditions":[1.5E1,1.2E1,5.45E-1,6E0,2.3E1,2.6E1,2.4E1,-2.1231864E-3,3.0247803E-4,-3.2391595E-3,-5.2445144E-3,-1.8453638E-3,1.4077767E-3,1.2999328E-3,3.115668E-3],"split_indices":[51,80,55,77,80,51,51,0,0,0,0,0,0,0,0],"split_type":[0,0,0,0,0,0,0,0,0,0,0,0,0,0,0],"sum_hessian":[6.5716484E3,3.2031267E3,3.3685215E3,1.5224364E3,1.6806904E3,1.9536863E3,1.4148352E3,1.0497133E3,4.7272308E2,1.0658667E3,6.1482367E2,1.3319581E3,6.217282E2,8.238167E2,5.910185E2],"tree_param":{"num_deleted":"0","num_feature":"106","num_nodes":"15","size_leaf_vector":"1"}},{"base_weights":[1.1318738E-1,2.7380368E-1,-3.957857E-2,1.3703027E-1,3.975433E-1,8.0991544E-2,-2.0600836E-1,2.1231861E-3,-3.0247858E-4,3.2391597E-3,5.2445144E-3,1.8453639E-3,-1.4077767E-3,-1.2999324E-3,-3.1156677E-3],"categories":[],"categories_nodes":[],"categories_segments":[],"categories_sizes":[],"default_left":[0,0,0,0,0,0,0,0,0,0,0,0,0,0,0],"id":63,"left_children":[1,3,5,7,9,11,13,-1,-1,-1,-1,-1,-1,-1,-1],"loss_changes":[1.6128195E2,5.4173096E1,6.763105E1,1.9192732E1,1.5543701E1,4.4911564E1,1.1320213E1,0E0,0E0,0E0,0E0,0E0,0E0,0E0,0E0],"parents":[2147483647,0,0,1,1,2,2,3,3,4,4,5,5,6,6],"right_children":[2,4,6,8,10,12,14,-1,-1,-1,-1,-1,-1,-1,-1],"split_conditions":[1.5E1,1.2E1,5.45E-1,6E0,2.3E1,2.6E1,2.4E1,2.1231861E-3,-3.0247858E-4,3.2391597E-3,5.2445144E-3,1.8453639E-3,-1.4077767E-3,-1.2999324E-3,-3.1156677E-3],"split_indices":[51,80,55,77,80,51,51,0,0,0,0,0,0,0,0],"split_type":[0,0,0,0,0,0,0,0,0,0,0,0,0,0,0],"sum_hessian":[6.5716484E3,3.2031267E3,3.3685215E3,1.5224364E3,1.6806904E3,1.9536863E3,1.4148352E3,1.0497133E3,4.7272308E2,1.0658667E3,6.1482367E2,1.3319581E3,6.217282E2,8.238167E2,5.910185E2],"tree_param":{"num_deleted":"0","num_feature":"106","num_nodes":"15","size_leaf_vector":"1"}},{"base_weights":[-1.1210535E-1,-2.1403137E-1,1.2468832E-1,-8.740844E-2,-3.588075E-1,-1.3118725E-1,1.9269626E-1,-2.164379E-3,1.9033109E-4,-4.959454E-3,-2.9867028E-3,-2.2385102E-3,8.6707313E-4,3.2168052E-3,9.871701E-4],"categories":[],"categories_nodes":[],"categories_segments":[],"categories_sizes":[],"default_left":[0,0,0,0,0,0,0,0,0,0,0,0,0,0,0],"id":64,"left_children":[1,3,5,7,9,11,13,-1,-1,-1,-1,-1,-1,-1,-1],"loss_changes":[1.585921E2,8.4171555E1,3.4438488E1,3.3673935E1,1.7522705E1,8.415667E0,1.8911644E1,0E0,0E0,0E0,0E0,0E0,0E0,0E0,0E0],"parents":[2147483647,0,0,1,1,2,2,3,3,4,4,5,5,6,6],"right_children":[2,4,6,8,10,12,14,-1,-1,-1,-1,-1,-1,-1,-1],"split_conditions":[2E1,1.4E1,3.6E-1,9E0,7E0,2.7E1,-5.9E0,-2.164379E-3,1.9033109E-4,-4.959454E-3,-2.9867028E-3,-2.2385102E-3,8.6707313E-4,3.2168052E-3,9.871701E-4],"split_indices":[28,80,55,29,51,28,25,0,0,0,0,0,0,0,0],"split_type":[0,0,0,0,0,0,0,0,0,0,0,0,0,0,0],"sum_hessian":[6.568818E3,4.5922256E3,1.9765923E3,2.4505498E3,2.141676E3,4.1484296E2,1.5617493E3,1.1072715E3,1.3432784E3,6.5065814E2,1.4910178E3,2.9104376E2,1.23799194E2,6.5725696E2,9.044923E2],"tree_param":{"num_deleted":"0","num_feature":"106","num_nodes":"15","size_leaf_vector":"1"}},{"base_weights":[1.1210536E-1,2.1403137E-1,-1.246883E-1,8.740842E-2,3.5880756E-1,1.3118726E-1,-1.9269624E-1,2.1643788E-3,-1.9033121E-4,4.9594543E-3,2.986703E-3,2.2385106E-3,-8.670739E-4,-3.2168052E-3,-9.871699E-4],"categories":[],"categories_nodes":[],"categories_segments":[],"categories_sizes":[],"default_left":[0,0,0,0,0,0,0,0,0,0,0,0,0,0,0],"id":65,"left_children":[1,3,5,7,9,11,13,-1,-1,-1,-1,-1,-1,-1,-1],"loss_changes":[1.5859207E2,8.4171585E1,3.443849E1,3.367394E1,1.7522736E1,8.415672E0,1.891164E1,0E0,0E0,0E0,0E0,0E0,0E0,0E0,0E0],"parents":[2147483647,0,0,1,1,2,2,3,3,4,4,5,5,6,6],"right_children":[2,4,6,8,10,12,14,-1,-1,-1,-1,-1,-1,-1,-1],"split_conditions":[2E1,1.4E1,3.6E-1,9E0,7E0,2.7E1,-5.9E0,2.1643788E-3,-1.9033121E-4,4.9594543E-3,2.986703E-3,2.2385106E-3,-8.670739E-4,-3.2168052E-3,-9.871699E-4],"split_indices":[28,80,55,29,51,28,25,0,0,0,0,0,0,0,0],"split_type":[0,0,0,0,0,0,0,0,0,0,0,0,0,0,0],"sum_hessian":[6.568818E3,4.592226E3,1.9765923E3,2.4505498E3,2.141676E3,4.1484296E2,1.5617493E3,1.1072715E3,1.3432784E3,6.5065814E2,1.4910178E3,2.910438E2,1.23799194E2,6.5725696E2,9.044923E2],"tree_param":{"num_deleted":"0","num_feature":"106","num_nodes":"15","size_leaf_vector":"1"}},{"base_weights":[-1.1103284E-1,-2.689606E-1,3.9065447E-2,-1.3443597E-1,-3.9087617E-1,-1.6563949E-1,1.34316E-1,-2.0900085E-3,3.1178998E-4,-3.178009E-3,-5.1705437E-3,4.0426338E-4,-2.812337E-3,4.5449633E-4,2.5243387E-3],"categories":[],"categories_nodes":[],"categories_segments":[],"categories_sizes":[],"default_left":[0,0,0,0,0,0,0,0,0,0,0,0,0,0,0],"id":66,"left_children":[1,3,5,7,9,11,13,-1,-1,-1,-1,-1,-1,-1,-1],"loss_changes":[1.5568015E2,5.2432602E1,6.568955E1,1.8813416E1,1.5309937E1,2.5496563E1,2.4119911E1,0E0,0E0,0E0,0E0,0E0,0E0,0E0,0E0],"parents":[2147483647,0,0,1,1,2,2,3,3,4,4,5,5,6,6],"right_children":[2,4,6,8,10,12,14,-1,-1,-1,-1,-1,-1,-1,-1],"split_conditions":[1.5E1,1.2E1,-1.9E0,6E0,2.3E1,-4.6E0,2.4E1,-2.0900085E-3,3.1178998E-4,-3.178009E-3,-5.1705437E-3,4.0426338E-4,-2.812337E-3,4.5449633E-4,2.5243387E-3],"split_indices":[51,80,77,77,80,25,51,0,0,0,0,0,0,0,0],"split_type":[0,0,0,0,0,0,0,0,0,0,0,0,0,0,0],"sum_hessian":[6.566041E3,3.1991865E3,3.3668547E3,1.5219418E3,1.6772448E3,1.0689066E3,2.2979482E3,1.0492676E3,4.7267416E2,1.0643512E3,6.128935E2,3.8436417E2,6.845424E2,1.31214E3,9.8580817E2],"tree_param":{"num_deleted":"0","num_feature":"106","num_nodes":"15","size_leaf_vector":"1"}},{"base_weights":[1.1103284E-1,2.689606E-1,-3.9065454E-2,1.3443594E-1,3.908762E-1,1.656395E-1,-1.3431603E-1,2.090008E-3,-3.117899E-4,3.178009E-3,5.1705437E-3,-4.0426312E-4,2.8123371E-3,-4.5449674E-4,-2.5243387E-3],"categories":[],"categories_nodes":[],"categories_segments":[],"categories_sizes":[],"default_left":[0,0,0,0,0,0,0,0,0,0,0,0,0,0,0],"id":67,"left_children":[1,3,5,7,9,11,13,-1,-1,-1,-1,-1,-1,-1,-1],"loss_changes":[1.5568015E2,5.2432602E1,6.568957E1,1.8813408E1,1.5309967E1,2.5496557E1,2.41199E1,0E0,0E0,0E0,0E0,0E0,0E0,0E0,0E0],"parents":[2147483647,0,0,1,1,2,2,3,3,4,4,5,5,6,6],"right_children":[2,4,6,8,10,12,14,-1,-1,-1,-1,-1,-1,-1,-1],"split_conditions":[1.5E1,1.2E1,-1.9E0,6E0,2.3E1,-4.6E0,2.4E1,2.090008E-3,-3.117899E-4,3.178009E-3,5.1705437E-3,-4.0426312E-4,2.8123371E-3,-4.5449674E-4,-2.5243387E-3],"split_indices":[51,80,77,77,80,25,51,0,0,0,0,0,0,0,0],"split_type":[0,0,0,0,0,0,0,0,0,0,0,0,0,0,0],"sum_hessian":[6.5660415E3,3.1991865E3,3.3668547E3,1.5219417E3,1.6772448E3,1.0689066E3,2.2979482E3,1.0492676E3,4.7267413E2,1.0643512E3,6.1289355E2,3.8436414E2,6.845425E2,1.31214E3,9.8580817E2],"tree_param":{"num_deleted":"0","num_feature":"106","num_nodes":"15","size_leaf_vector":"1"}},{"base_weights":[-1.0997408E-1,-2.1016903E-1,1.2268388E-1,-8.567339E-2,-3.5273862E-1,2.5175074E-1,-8.608736E-3,-2.1287352E-3,1.9211933E-4,-2.7608993E-3,-4.5900494E-3,3.7692036E-3,1.6561156E-3,1.158643E-3,-1.5258353E-3],"categories":[],"categories_nodes":[],"categories_segments":[],"categories_sizes":[],"default_left":[0,0,0,0,0,0,0,0,0,0,0,0,0,0,0],"id":68,"left_children":[1,3,5,7,9,11,13,-1,-1,-1,-1,-1,-1,-1,-1],"loss_changes":[1.5304227E2,8.141318E1,3.3495766E1,3.2702065E1,1.7293213E1,1.0684582E1,1.7594414E1,0E0,0E0,0E0,0E0,0E0,0E0,0E0,0E0],"parents":[2147483647,0,0,1,1,2,2,3,3,4,4,5,5,6,6],"right_children":[2,4,6,8,10,12,14,-1,-1,-1,-1,-1,-1,-1,-1],"split_conditions":[2E1,1.4E1,1.6E1,9E0,2.3E1,-5.9E0,-4.6E0,-2.1287352E-3,1.9211933E-4,-2.7608993E-3,-4.5900494E-3,3.7692036E-3,1.6561156E-3,1.158643E-3,-1.5258353E-3],"split_indices":[28,80,103,29,80,25,25,0,0,0,0,0,0,0,0],"split_type":[0,0,0,0,0,0,0,0,0,0,0,0,0,0,0],"sum_hessian":[6.563089E3,4.587544E3,1.975545E3,2.44986E3,2.1376838E3,9.957541E2,9.797909E2,1.1066888E3,1.3431714E3,1.2439995E3,8.936843E2,4.0453903E2,5.912151E2,5.255893E2,4.5420163E2],"tree_param":{"num_deleted":"0","num_feature":"106","num_nodes":"15","size_leaf_vector":"1"}},{"base_weights":[1.0997409E-1,2.1016903E-1,-1.2268387E-1,8.56734E-2,3.5273862E-1,-2.5175074E-1,8.608751E-3,2.1287354E-3,-1.9211935E-4,2.760899E-3,4.5900494E-3,-3.7692036E-3,-1.6561155E-3,-1.1586428E-3,1.5258353E-3],"categories":[],"categories_nodes":[],"categories_segments":[],"categories_sizes":[],"default_left":[0,0,0,0,0,0,0,0,0,0,0,0,0,0,0],"id":69,"left_children":[1,3,5,7,9,11,13,-1,-1,-1,-1,-1,-1,-1,-1],"loss_changes":[1.5304227E2,8.141318E1,3.3495766E1,3.2702072E1,1.7293213E1,1.0684593E1,1.759441E1,0E0,0E0,0E0,0E0,0E0,0E0,0E0,0E0],"parents":[2147483647,0,0,1,1,2,2,3,3,4,4,5,5,6,6],"right_children":[2,4,6,8,10,12,14,-1,-1,-1,-1,-1,-1,-1,-1],"split_conditions":[2E1,1.4E1,1.6E1,9E0,2.3E1,-5.9E0,-4.6E0,2.1287354E-3,-1.9211935E-4,2.760899E-3,4.5900494E-3,-3.7692036E-3,-1.6561155E-3,-1.1586428E-3,1.5258353E-3],"split_indices":[28,80,103,29,80,25,25,0,0,0,0,0,0,0,0],"split_type":[0,0,0,0,0,0,0,0,0,0,0,0,0,0,0],"sum_hessian":[6.563089E3,4.587544E3,1.975545E3,2.44986E3,2.1376838E3,9.957541E2,9.797909E2,1.1066888E3,1.3431714E3,1.2439995E3,8.936843E2,4.0453903E2,5.91215E2,5.255893E2,4.5420163E2],"tree_param":{"num_deleted":"0","num_feature":"106","num_nodes":"15","size_leaf_vector":"1"}},{"base_weights":[-1.0892548E-1,-2.6433638E-1,3.8677845E-2,-1.3189532E-1,-3.845762E-1,-7.849721E-2,2.0038603E-1,-2.0574424E-3,3.2071554E-4,-3.1257374E-3,-5.091842E-3,-1.7837709E-3,1.3531529E-3,1.2739686E-3,3.0192723E-3],"categories":[],"categories_nodes":[],"categories_segments":[],"categories_sizes":[],"default_left":[0,0,0,0,0,0,0,0,0,0,0,0,0,0,0],"id":70,"left_children":[1,3,5,7,9,11,13,-1,-1,-1,-1,-1,-1,-1,-1],"loss_changes":[1.5051596E2,5.0846848E1,6.3794132E1,1.8441324E1,1.4866486E1,4.171943E1,1.0445038E1,0E0,0E0,0E0,0E0,0E0,0E0,0E0,0E0],"parents":[2147483647,0,0,1,1,2,2,3,3,4,4,5,5,6,6],"right_children":[2,4,6,8,10,12,14,-1,-1,-1,-1,-1,-1,-1,-1],"split_conditions":[1.5E1,1.2E1,5.45E-1,6E0,2.3E1,2.6E1,2.4E1,-2.0574424E-3,3.2071554E-4,-3.1257374E-3,-5.091842E-3,-1.7837709E-3,1.3531529E-3,1.2739686E-3,3.0192723E-3],"split_indices":[51,80,55,77,80,51,51,0,0,0,0,0,0,0,0],"split_type":[0,0,0,0,0,0,0,0,0,0,0,0,0,0,0],"sum_hessian":[6.5600815E3,3.1951409E3,3.3649407E3,1.5214263E3,1.6737146E3,1.951432E3,1.4135087E3,1.0488021E3,4.7262415E2,1.0629923E3,6.107223E2,1.3302076E3,6.2122437E2,8.236865E2,5.898222E2],"tree_param":{"num_deleted":"0","num_feature":"106","num_nodes":"15","size_leaf_vector":"1"}},{"base_weights":[1.0892547E-1,2.6433638E-1,-3.8677868E-2,1.3189529E-1,3.8457623E-1,7.8497194E-2,-2.0038606E-1,2.057442E-3,-3.2071568E-4,3.1257374E-3,5.0918423E-3,1.7837706E-3,-1.3531529E-3,-1.2739686E-3,-3.0192728E-3],"categories":[],"categories_nodes":[],"categories_segments":[],"categories_sizes":[],"default_left":[0,0,0,0,0,0,0,0,0,0,0,0,0,0,0],"id":71,"left_children":[1,3,5,7,9,11,13,-1,-1,-1,-1,-1,-1,-1,-1],"loss_changes":[1.5051598E2,5.0846848E1,6.3794136E1,1.8441317E1,1.4866531E1,4.1719418E1,1.0445038E1,0E0,0E0,0E0,0E0,0E0,0E0,0E0,0E0],"parents":[2147483647,0,0,1,1,2,2,3,3,4,4,5,5,6,6],"right_children":[2,4,6,8,10,12,14,-1,-1,-1,-1,-1,-1,-1,-1],"split_conditions":[1.5E1,1.2E1,5.45E-1,6E0,2.3E1,2.6E1,2.4E1,2.057442E-3,-3.2071568E-4,3.1257374E-3,5.0918423E-3,1.7837706E-3,-1.3531529E-3,-1.2739686E-3,-3.0192728E-3],"split_indices":[51,80,55,77,80,51,51,0,0,0,0,0,0,0,0],"split_type":[0,0,0,0,0,0,0,0,0,0,0,0,0,0,0],"sum_hessian":[6.5600815E3,3.1951409E3,3.3649407E3,1.5214263E3,1.6737146E3,1.951432E3,1.4135087E3,1.0488021E3,4.726241E2,1.0629923E3,6.107223E2,1.3302076E3,6.2122437E2,8.236865E2,5.898222E2],"tree_param":{"num_deleted":"0","num_feature":"106","num_nodes":"15","size_leaf_vector":"1"}},{"base_weights":[-1.078876E-1,-2.0638713E-1,1.2071726E-1,-8.407333E-2,-3.466906E-1,-1.2835823E-1,1.8694454E-1,-2.0938546E-3,1.9208735E-4,-4.8204404E-3,-2.874355E-3,-2.1857251E-3,8.364058E-4,3.1204852E-3,9.593099E-4],"categories":[],"categories_nodes":[],"categories_segments":[],"categories_sizes":[],"default_left":[0,0,0,0,0,0,0,0,0,0,0,0,0,0,0],"id":72,"left_children":[1,3,5,7,9,11,13,-1,-1,-1,-1,-1,-1,-1,-1],"loss_changes":[1.4769565E2,7.8630646E1,3.2609863E1,3.1714745E1,1.6980957E1,7.965212E0,1.774284E1,0E0,0E0,0E0,0E0,0E0,0E0,0E0,0E0],"parents":[2147483647,0,0,1,1,2,2,3,3,4,4,5,5,6,6],"right_children":[2,4,6,8,10,12,14,-1,-1,-1,-1,-1,-1,-1,-1],"split_conditions":[2E1,1.4E1,3.6E-1,9E0,7E0,2.7E1,-5.9E0,-2.0938546E-3,1.9208735E-4,-4.8204404E-3,-2.874355E-3,-2.1857251E-3,8.364058E-4,3.1204852E-3,9.593099E-4],"split_indices":[28,80,55,29,51,28,25,0,0,0,0,0,0,0,0],"split_type":[0,0,0,0,0,0,0,0,0,0,0,0,0,0,0],"sum_hessian":[6.557052E3,4.582623E3,1.9744286E3,2.4491243E3,2.1334988E3,4.1451877E2,1.5599099E3,1.1060845E3,1.3430397E3,6.474429E2,1.4860559E3,2.9075815E2,1.23760635E2,6.5590186E2,9.04008E2],"tree_param":{"num_deleted":"0","num_feature":"106","num_nodes":"15","size_leaf_vector":"1"}},{"base_weights":[1.0788761E-1,2.0638715E-1,-1.2071726E-1,8.407333E-2,3.4669062E-1,1.2835817E-1,-1.8694453E-1,2.0938541E-3,-1.9208714E-4,4.8204404E-3,2.8743553E-3,2.1857244E-3,-8.364059E-4,-3.1204855E-3,-9.593095E-4],"categories":[],"categories_nodes":[],"categories_segments":[],"categories_sizes":[],"default_left":[0,0,0,0,0,0,0,0,0,0,0,0,0,0,0],"id":73,"left_children":[1,3,5,7,9,11,13,-1,-1,-1,-1,-1,-1,-1,-1],"loss_changes":[1.4769568E2,7.863066E1,3.2609848E1,3.1714727E1,1.6980927E1,7.965207E0,1.7742844E1,0E0,0E0,0E0,0E0,0E0,0E0,0E0,0E0],"parents":[2147483647,0,0,1,1,2,2,3,3,4,4,5,5,6,6],"right_children":[2,4,6,8,10,12,14,-1,-1,-1,-1,-1,-1,-1,-1],"split_conditions":[2E1,1.4E1,3.6E-1,9E0,7E0,2.7E1,-5.9E0,2.0938541E-3,-1.9208714E-4,4.8204404E-3,2.8743553E-3,2.1857244E-3,-8.364059E-4,-3.1204855E-3,-9.593095E-4],"split_indices":[28,80,55,29,51,28,25,0,0,0,0,0,0,0,0],"split_type":[0,0,0,0,0,0,0,0,0,0,0,0,0,0,0],"sum_hessian":[6.557052E3,4.582623E3,1.9744286E3,2.4491243E3,2.1334988E3,4.1451877E2,1.5599099E3,1.1060846E3,1.3430397E3,6.474429E2,1.4860559E3,2.9075815E2,1.23760635E2,6.5590186E2,9.04008E2],"tree_param":{"num_deleted":"0","num_feature":"106","num_nodes":"15","size_leaf_vector":"1"}},{"base_weights":[-1.0685864E-1,-2.596827E-1,3.817317E-2,-3.2156E-1,-8.710615E-3,-1.6066672E-1,1.3063829E-1,-2.6499606E-3,-5.0212685E-3,2.5081316E-3,-5.60729E-4,-2.6776845E-4,-3.2810685E-3,4.5281742E-4,2.442478E-3],"categories":[],"categories_nodes":[],"categories_segments":[],"categories_sizes":[],"default_left":[0,0,0,0,0,0,0,0,0,0,0,0,0,0,0],"id":74,"left_children":[1,3,5,7,9,11,13,-1,-1,-1,-1,-1,-1,-1,-1],"loss_changes":[1.4529915E2,4.956613E1,6.187361E1,2.6019653E1,7.786648E0,2.39407E1,2.2262413E1,0E0,0E0,0E0,0E0,0E0,0E0,0E0,0E0],"parents":[2147483647,0,0,1,1,2,2,3,3,4,4,5,5,6,6],"right_children":[2,4,6,8,10,12,14,-1,-1,-1,-1,-1,-1,-1,-1],"split_conditions":[1.5E1,4.9E0,-1.9E0,2.3E1,2E0,4.06E-1,2.4E1,-2.6499606E-3,-5.0212685E-3,2.5081316E-3,-5.60729E-4,-2.6776845E-4,-3.2810685E-3,4.5281742E-4,2.442478E-3],"split_indices":[51,77,77,80,85,3,51,0,0,0,0,0,0,0,0],"split_type":[0,0,0,0,0,0,0,0,0,0,0,0,0,0,0],"sum_hessian":[6.5540874E3,3.1909277E3,3.3631597E3,2.5595806E3,6.313473E2,1.0672894E3,2.29587E3,1.9509105E3,6.0867E2,9.677403E1,5.3457324E2,5.9370557E2,4.735839E2,1.3117391E3,9.841311E2],"tree_param":{"num_deleted":"0","num_feature":"106","num_nodes":"15","size_leaf_vector":"1"}},{"base_weights":[1.06858626E-1,2.596827E-1,-3.8173184E-2,3.2156E-1,8.710596E-3,1.606667E-1,-1.306383E-1,2.6499606E-3,5.0212685E-3,-2.5081316E-3,5.6072883E-4,2.6776845E-4,3.281068E-3,-4.5281756E-4,-2.442478E-3],"categories":[],"categories_nodes":[],"categories_segments":[],"categories_sizes":[],"default_left":[0,0,0,0,0,0,0,0,0,0,0,0,0,0,0],"id":75,"left_children":[1,3,5,7,9,11,13,-1,-1,-1,-1,-1,-1,-1,-1],"loss_changes":[1.4529916E2,4.9566147E1,6.1873608E1,2.6019623E1,7.7866483E0,2.3940695E1,2.2262413E1,0E0,0E0,0E0,0E0,0E0,0E0,0E0,0E0],"parents":[2147483647,0,0,1,1,2,2,3,3,4,4,5,5,6,6],"right_children":[2,4,6,8,10,12,14,-1,-1,-1,-1,-1,-1,-1,-1],"split_conditions":[1.5E1,4.9E0,-1.9E0,2.3E1,2E0,4.06E-1,2.4E1,2.6499606E-3,5.0212685E-3,-2.5081316E-3,5.6072883E-4,2.6776845E-4,3.281068E-3,-4.5281756E-4,-2.442478E-3],"split_indices":[51,77,77,80,85,3,51,0,0,0,0,0,0,0,0],"split_type":[0,0,0,0,0,0,0,0,0,0,0,0,0,0,0],"sum_hessian":[6.5540874E3,3.1909277E3,3.3631597E3,2.5595803E3,6.313473E2,1.0672894E3,2.29587E3,1.9509104E3,6.0867E2,9.677403E1,5.3457324E2,5.9370557E2,4.735839E2,1.3117391E3,9.8413104E2],"tree_param":{"num_deleted":"0","num_feature":"106","num_nodes":"15","size_leaf_vector":"1"}},{"base_weights":[-1.0584078E-1,8.515944E-2,-2.1971583E-1,-3.2303397E-2,2.1970183E-1,-3.1110537E-1,-2.5921892E-2,1.1739528E-3,-1.5575514E-3,1.6968157E-3,3.6914716E-3,-4.093819E-3,-2.2342554E-3,8.879151E-4,-1.4349543E-3],"categories":[],"categories_nodes":[],"categories_segments":[],"categories_sizes":[],"default_left":[0,0,0,0,0,0,0,0,0,0,0,0,0,0,0],"id":76,"left_children":[1,3,5,7,9,11,13,-1,-1,-1,-1,-1,-1,-1,-1],"loss_changes":[1.425268E2,3.8694622E1,7.269537E1,2.418768E1,8.46796E0,2.3944916E1,1.7769926E1,0E0,0E0,0E0,0E0,0E0,0E0,0E0,0E0],"parents":[2147483647,0,0,1,1,2,2,3,3,4,4,5,5,6,6],"right_children":[2,4,6,8,10,12,14,-1,-1,-1,-1,-1,-1,-1,-1],"split_conditions":[4.59E-1,5.19E-1,3E0,-4.9E0,2.8E1,-1.4E0,3.1E0,1.1739528E-3,-1.5575514E-3,1.6968157E-3,3.6914716E-3,-4.093819E-3,-2.2342554E-3,8.879151E-4,-1.4349543E-3],"split_indices":[3,55,77,25,51,77,25,0,0,0,0,0,0,0,0],"split_type":[0,0,0,0,0,0,0,0,0,0,0,0,0,0,0],"sum_hessian":[6.551048E3,2.4469995E3,4.1040483E3,1.3068276E3,1.1401719E3,2.788459E3,1.3155895E3,5.9064966E2,7.16178E2,8.5584937E2,2.8432248E2,1.3130496E3,1.4754094E3,6.6601807E2,6.4957135E2],"tree_param":{"num_deleted":"0","num_feature":"106","num_nodes":"15","size_leaf_vector":"1"}},{"base_weights":[1.0584077E-1,-8.515946E-2,2.1971583E-1,3.230339E-2,-2.1970186E-1,3.1110534E-1,2.5921896E-2,-1.1739532E-3,1.5575514E-3,-1.696816E-3,-3.6914723E-3,4.0938184E-3,2.2342552E-3,-8.879152E-4,1.4349547E-3],"categories":[],"categories_nodes":[],"categories_segments":[],"categories_sizes":[],"default_left":[0,0,0,0,0,0,0,0,0,0,0,0,0,0,0],"id":77,"left_children":[1,3,5,7,9,11,13,-1,-1,-1,-1,-1,-1,-1,-1],"loss_changes":[1.4252682E2,3.8694626E1,7.269536E1,2.4187683E1,8.46796E0,2.3944916E1,1.7769932E1,0E0,0E0,0E0,0E0,0E0,0E0,0E0,0E0],